3895 64
4018 0.06757427 -0.012605179 0.418256 -0.016117804 -0.1177335 -0.095170125 0.026991665 0.14852527 -0.25221163 0.0834431 -0.15295035 -0.26369616 0.1281263 0.027113372 -0.07546681 -0.07114838 0.09077922 -0.009256073 -0.13204369 0.18762667 0.29099447 0.1330174 0.11836705 -0.08727088 0.03980186 -0.17010929 -0.00063581445 -0.10186307 -0.19194996 -0.17575203 -0.26992884 -0.20573944 0.3089939 -0.4732247 -0.04494406 0.0022707377 0.0034006753 -0.075734206 -0.06712617 0.17352642 -0.03308225 0.15571958 -0.22201394 -0.083421856 0.053834867 -0.21265249 -0.35812417 0.26455364 -0.04992656 -0.2001941 -0.20548046 0.022680607 -0.059243184 -0.17308234 0.01701041 -0.011799149 0.56866556 0.027591528 0.09934334 0.15234348 -0.35483912 -0.017962264 0.031150095 -0.42107382
4025 0.17985651 -0.3516402 0.12848851 0.10519648 0.14719565 0.074860096 0.16040161 0.4580351 -0.063514546 0.13013922 -0.040706836 -0.08615255 0.21922617 -0.12717392 0.08847144 0.051263623 -0.060702067 0.32280305 -0.21535173 0.112782024 0.54885685 0.28796443 0.2239052 0.0037641393 0.004938162 0.2608689 -0.091957845 -0.043672603 -0.32356474 0.30939993 -0.10431054 0.08605529 0.0793105 -0.41261017 -0.06425792 -0.34499165 0.08705263 0.26699677 0.30749294 0.20827621 -0.047877852 0.56551135 0.18869253 0.4858682 -0.46592638 -0.15475221 0.22321379 -0.059519574 -0.15956722 -0.12436167 -0.052959748 -0.17295922 0.036890764 0.16410449 -0.12927069 -0.16066097 0.3812452 -0.29307112 -0.017741498 -0.23053686 0.41323063 0.04416454 -0.0048538987 -0.03321035
4026 -0.2224721 -0.032448664 0.2716606 0.1285094 0.16786365 -0.1503674 -0.20382562 0.44252145 -0.29289004 -0.18876326 0.2558963 0.13459395 0.32590947 -0.32923183 -0.079921104 -0.1478131 -0.13760494 0.3655552 -0.19137225 0.21530703 0.16723192 0.022826439 0.08144397 -0.3460809 -0.07719865 0.03625259 0.2560809 -0.08740702 -0.043625865 -0.119286634 -0.2562083 -0.11800577 0.13632464 -0.35120124 0.14093468 0.30120128 0.20451398 0.14008726 0.2901827 -0.10247023 0.19135433 0.23391317 0.028737308 -0.307096 0.08591507 -0.05292916 0.019735007 -0.13902865 -0.02722112 0.17456743 -0.08497274 -0.12939869 -0.05137214 0.17845833 0.3543628 -0.03409975 0.40403998 0.05981984 0.052296534 -0.12269193 -0.18453044 -0.17408867 -0.22437254 0.014282373
4017 -0.051404603 0.039860666 0.20192234 -0.0018998754 0.24170981 -0.14310578 0.029593065 0.39852595 0.07831938 0.04589358 -0.014115284 0.0066115647 0.14448002 -0.042168424 -0.066032045 -0.20437102 -0.20145564 0.4828814 -0.00405478 0.24176984 0.3500263 -0.0776728 0.22810449 -0.45250976 -0.16072825 -0.21007596 0.17747772 -0.14740244 -0.14190848 -0.19680975 -0.39812952 -0.32283804 0.2688396 -0.40332064 0.19854471 0.2518864 -0.04351031 0.17468092 0.2254176 -0.27167735 -0.1860985 0.19035147 -0.23418935 -0.20844689 0.13037786 0.20963562 -0.08880884 -0.030744372 -0.060327467 0.0716549 -0.04038445 -0.22307017 0.18695766 -0.037340775 0.11393138 0.07749953 0.4558228 -0.0819901 0.29443488 -0.04702423 -0.35052153 -0.33299854 -0.16904785 0.10007482
4027 0.041926365 -0.14492585 -0.023372367 0.16745004 0.2663623 -0.023873402 0.10927115 0.46096164 0.06759015 0.20845331 -0.10260473 0.06812029 0.009869882 0.032924686 0.30677477 -0.03093612 -0.06998081 0.49654955 0.024251193 0.3380395 0.4824672 0.1301543 0.40598026 -0.27922052 0.007748894 -0.08829906 -0.123321936 -0.12311646 -0.3479682 0.040460948 -0.11989029 -0.21367678 0.16056037 -0.3191229 0.03918509 0.105569676 0.1807326 0.10730151 0.30606326 -0.2457642 -0.20387949 0.23454256 -0.13620095 0.051940337 -0.022824274 0.13064416 0.30170715 0.09627864 -0.060831297 -0.21539566 0.15462188 -0.24276511 0.06932532 0.13322406 0.027166463 -0.04033147 0.33440763 -0.20672968 -0.027358105 -0.18051314 0.007489722 -0.1675627 -0.06518979 -0.053173244
4021 0.15007637 -0.25824508 -0.0012499118 0.18686236 0.26319668 0.06217218 0.12813805 0.54414326 -0.02155205 0.19855134 -0.06643671 0.00702101 0.08112714 -0.03761929 0.285099 0.0497489 -0.06778861 0.37269226 -0.14273287 0.2705862 0.58257407 0.24652418 0.34523946 -0.09411478 0.0488994 0.035346907 -0.15513137 -0.1436699 -0.4838339 0.1808924 -0.051599253 -0.0103380345 0.11282666 -0.36258066 0.010806546 -0.20341443 0.07200466 0.15823555 0.27620578 0.0489067 -0.15343437 0.40382138 0.016139634 0.33159956 -0.33136937 -0.0057658637 0.3666028 0.053604193 -0.15202725 -0.20098606 0.041263156 -0.1674061 0.08103634 0.15217769 -0.10519136 -0.11067925 0.33417672 -0.28032917 -0.11023545 -0.2629792 0.31448227 -0.013184072 -0.0011971389 -0.05197699
4019 0.054567937 -0.32120916 0.1542069 0.17197444 0.115774944 -0.036811773 0.106848784 0.32252192 -0.21922114 0.09671319 0.08797579 -0.16111407 0.3340735 -0.20526272 -0.0098415585 -0.050336808 -0.11542492 0.19483672 -0.13376178 0.047022175 0.38305134 0.23036931 0.16739544 -0.053969905 -0.092753716 0.25190264 0.045783494 0.05737866 -0.22495547 0.20700985 -0.1598339 0.118949056 -0.013815819 -0.44995204 -0.123571984 -0.2180738 0.087291904 0.18248232 0.32765892 0.17031941 0.029081354 0.42840734 0.17759845 0.2981425 -0.34860662 -0.1011956 0.072291985 -0.11439977 -0.045190107 -0.030804103 -0.067681074 -0.0806053 -0.008405067 0.18348415 -0.14543785 -0.1950448 0.38769314 -0.16307598 0.103371166 -0.22863819 0.29875162 -0.094371624 -0.1285438 0.004819911
4020 -0.2117214 -0.40542862 0.05105423 0.26237985 0.2872626 -0.49162292 -0.13218153 0.0916893 -0.4995258 -0.26203308 0.20751314 -0.19630943 0.38524958 -0.12467744 0.18989101 -0.2792371 0.024753623 0.085258186 0.051298082 0.08219526 0.14448926 0.25136936 0.043214202 -0.13066646 -0.1451509 0.10506354 -0.07226185 0.35444406 -0.3233941 0.24848092 -0.041176595 0.042912163 -0.52801377 -0.61305434 -0.26426563 -0.05147916 0.11217255 -0.105567716 0.67766154 -0.12914656 0.21005107 0.27533937 0.09684613 -0.1687908 -0.18734044 -0.18147515 -0.10011709 -0.14519365 0.23492962 0.05834559 -0.046887174 -0.04123658 -0.114900164 0.19531326 -0.07070564 -0.09399131 0.2751188 -0.032400727 0.1918114 -0.2528634 -0.17841135 -0.5442418 -0.33488473 0.05574066
4022 0.012512736 -0.20485902 0.04918896 0.10510258 0.17960937 -0.18132332 -0.0018773411 0.23638146 -0.12499397 0.16629939 0.17978834 -0.12506908 0.26327607 0.023984736 0.16121589 -0.08769501 -0.10238986 0.3745074 0.2531314 0.18575704 0.20759776 0.06782453 0.316375 -0.2790642 -0.1859153 0.048140433 -0.069518864 0.11638506 -0.047062818 0.033718687 -0.16283482 -0.20627493 -0.060661387 -0.35997266 -0.11627703 0.14651842 0.22364554 0.027212525 0.44782916 -0.14149222 0.02270735 0.15017757 -0.12854888 -0.019060254 0.068313435 0.12104799 -0.02513382 -0.042490054 0.1938197 -0.13791646 0.12264713 -0.15665348 0.09356456 0.17363204 -0.012917549 -0.105960146 0.42395228 -0.10938306 0.15177833 -0.065009 -0.19972908 -0.31758925 -0.21527152 0.0715442
4030 -0.071105644 -0.23330426 -0.009443889 0.34995076 0.33414856 0.011016611 0.08848199 0.3822088 -0.4275258 -0.016106784 0.05368387 -0.034626666 0.023501594 -0.07432487 0.42474565 -0.098844625 -0.12154177 0.22310826 -0.15111081 0.32395694 0.37365666 0.2817071 0.36891297 -0.2560499 -0.058363777 -0.10507366 -0.053065427 0.049313728 -0.36940053 0.07441917 0.06138789 0.045530953 -0.24626966 -0.4152038 -0.045917127 0.18203643 0.19701125 0.03663929 0.23443303 -0.1514864 0.0066421144 0.054615058 -0.035488892 0.018294867 -0.11618953 0.04277967 0.3143334 0.10356909 -0.056664526 -0.075350754 -0.055506196 -0.101838306 -0.0118826525 0.13586146 -0.0059632147 -0.04823585 0.31180242 -0.08695674 -0.15929833 -0.27148083 0.1563539 -0.2504438 -0.17558007 -0.0023288918
4032 -0.049183466 -0.1362199 0.30262524 0.048097823 0.011070387 -0.30360752 -0.21078712 0.06314174 -0.40376365 -0.13528293 0.015667139 -0.50879717 0.05214026 -0.20941478 -0.21824804 -0.13931021 -0.18618007 0.36681873 0.038624663 0.17295793 0.3102273 0.1952678 0.08135536 -0.17041542 -0.43277878 0.13961515 0.09811564 0.24312608 -0.074041866 -0.10839212 -0.33277223 -0.21788418 -0.08342234 -0.31800568 -0.22345604 0.37984082 0.2114034 0.050810013 0.06975938 0.059164993 0.12756799 -0.19369467 -0.053162605 -0.11908371 0.15891017 0.16615699 -0.11642158 -0.004531802 0.10208447 0.35033596 -0.51381123 0.0057960907 0.049623266 0.20592435 0.10022436 -0.1518291 0.6291237 -0.14105015 -0.1954485 0.494146 -0.20696945 -0.21739061 -0.12418012 0.01711515
4024 -0.21272144 -0.0704303 0.21525064 -0.11816726 -0.16733532 -0.28707105 -0.38927975 0.2367519 -0.032953843 -0.09222833 0.19241863 -0.38129258 0.013368766 -0.3278339 -0.16841772 0.15136205 -0.09085756 0.54650325 0.20978574 0.33411416 0.4078003 0.31597024 0.07046382 -0.12211336 -0.36010325 0.2450862 0.012182505 0.09824818 -0.011237284 -0.10033798 -0.21074092 -0.38049397 0.06734728 -0.089637496 -0.22488621 0.598364 0.65814483 0.017434154 0.107532196 -0.10013961 0.31249353 -0.21431811 -0.12256885 -0.24829082 0.4421446 0.034323808 0.08814151 0.086497925 0.11645325 0.22469714 -0.25441888 -0.118727796 -0.06733881 0.49572238 0.42709213 -0.21929659 0.6053929 -0.32244 -0.3920737 0.6346789 -0.42398292 0.018467091 0.07775411 -0.019916015
4031 -0.10070729 -0.02280039 0.07941275 -0.13800822 -0.058964666 -0.25479856 -0.2634491 0.28980514 0.25671995 0.051149458 0.12952048 -0.14721206 0.018707152 -0.1442674 -0.106177956 0.1936673 -0.062054142 0.6196599 0.26321694 0.34134868 0.4255025 0.23031949 0.18294315 -0.2857065 -0.27327046 0.18292911 -0.0827324 0.08480525 -0.12031407 -0.04996653 -0.26017663 -0.36689472 0.15447092 -0.048225112 -0.17550272 0.48235494 0.59248865 -0.02740029 0.2847131 -0.24421059 0.09572113 -0.1275345 -0.16580345 -0.19765155 0.42146742 0.1336233 0.090302646 0.121191904 0.11725867 0.12491112 -0.05418672 -0.1498925 0.021143273 0.45944443 0.2935304 -0.23141786 0.61019754 -0.37027034 -0.3627832 0.46170616 -0.35638222 -0.06783885 -0.012791764 0.06800161
4028 0.13580148 0.18045086 0.39344347 0.3514199 0.07546699 0.23150122 0.44638884 0.16059472 -0.67205656 0.2835646 0.33168986 -0.15025352 0.07134203 -0.09678469 0.26381874 -0.14670691 -0.10090644 -0.19776817 0.042520035 -0.13029715 -0.14653887 0.41482136 0.29060447 -0.21715003 0.10096866 0.32649204 0.34018442 0.29989007 -0.022150485 -0.21160653 0.03002405 0.30499068 -0.24610047 -0.6947074 -0.14112698 0.20432833 0.17436828 -0.07066618 0.17873712 -0.019283237 0.33923483 0.3200957 -0.2952144 0.08265381 -0.16990261 -0.12894353 -0.22207546 0.106287725 0.3828837 0.04516235 0.0978204 0.20475763 -0.11856188 0.2889556 -0.016668398 -0.21784346 0.50882334 0.022238465 0.10825824 -0.19960314 0.18755062 -0.30297878 -0.17712413 -0.09785634
2077 -0.084844366 -0.10208958 0.51637864 0.3940383 -0.042274237 -0.24778683 -0.24171564 0.6001383 -0.28667694 -0.5891693 0.36534378 0.018498776 0.39132285 -0.061714992 -0.04964778 -0.0036128787 -0.21318527 0.19051816 0.08327959 0.36915436 0.00041931102 -0.29663277 0.391387 -0.28761405 -0.03582647 -0.24081527 0.041429587 -0.1908668 -0.068270564 -0.3708321 -0.24790998 -0.12535454 0.024269745 -0.3784505 0.08071879 -0.048857108 0.16878518 -0.29177472 0.4612912 -0.021258589 0.18583965 0.5253523 0.09800419 -0.4578368 0.16070345 0.31736585 0.0086347945 -0.07175156 -0.09843019 0.16467744 -0.20679387 -0.2816478 0.0077341734 0.3102116 0.3951092 0.05978187 -0.036394585 0.1848378 0.19571263 -0.16055198 -0.02028462 0.07037025 -0.27122465 -0.06690339
2084 0.8218376 1.1287736 1.64094 0.7739081 -0.7664035 0.043894667 0.4436052 -0.07522896 0.6717179 -0.5269909 1.4358308 -0.38329723 -0.4062102 0.043527786 0.3640175 0.41882858 -0.44917732 -0.59703964 0.23133495 -0.24738893 1.5746025 0.85849804 0.7290122 -0.0930313 0.13670951 -0.6392527 -0.276757 0.3257132 -0.45424846 0.0023982215 -1.4264307 0.15031224 0.069469616 -1.5168037 -0.16804543 -0.8423922 0.016480388 -0.1427177 0.16941229 0.49937525 1.0138288 0.34988487 -0.6852574 -0.8886325 -0.40454713 -0.30005142 -0.15006563 0.56570566 -0.47157374 -0.17061247 -0.050685152 -1.0441214 0.0761475 -0.19723701 0.89234155 0.22252887 0.24291629 -1.3905008 -0.22839843 0.15886988 -1.0611869 0.3651931 0.22987543 -1.0543265
72 -0.15712087 -0.098450914 0.33323047 -0.08428251 0.1672148 -0.21171911 0.19741221 0.15817182 0.21841073 0.2216779 0.41644397 0.11950057 -0.052403193 0.05647801 -0.24786644 -0.17247291 -0.5389306 -0.21328476 -0.16554463 -0.028768498 0.21884952 0.091768496 -0.06517294 -0.2434667 -0.020915093 0.19924064 0.329179 0.043617085 -0.40530804 0.06069126 -0.35751703 0.15988235 0.2238692 -0.31201914 0.23900607 0.47366253 0.24272941 0.14316472 0.32504925 -0.5540311 0.3521735 0.3366384 -0.13843134 -0.55500686 0.11002231 -0.05282379 -0.0534689 0.040739022 -0.010796787 0.07255296 -0.049504373 -0.3629493 0.04448756 0.2637587 0.040040683 -0.06300315 0.4812194 -0.21083428 -0.13360612 -0.47283778 -0.20744462 -0.3439192 -0.4753064 0.384871
38 1.4843835 0.39363086 0.9813438 0.5595469 -0.20558283 0.46943128 0.48346055 0.24239428 0.78239745 -0.124553695 1.114351 -0.49526876 0.27599752 1.157476 0.024640715 0.99875253 -0.7131396 -0.2619697 -0.5151709 -0.38942173 0.8153307 0.5298848 0.14004903 -0.14773346 -0.022626996 -0.25967568 0.40728283 -0.40769103 -1.5331647 -0.44066378 -0.46651348 -0.79428726 -0.36562765 -1.7821146 -0.014669182 -0.53149813 0.05985999 -0.5916435 -0.58275867 0.17435409 0.69296366 0.7284336 -0.62913096 -0.8106309 0.05747186 -0.55608976 0.040101822 0.4409864 -0.00817654 0.16219653 -0.65797365 -1.191957 -0.6437508 0.39718896 0.50127006 0.3907823 0.3854189 -1.5264646 0.06313802 0.0954524 -0.8724822 0.7659058 -0.19595085 -1.3223413
36 0.18774955 -0.2006472 0.08418954 0.049387034 0.042149555 -0.15129247 0.3764624 0.23859102 0.09430293 -0.03900709 0.22887738 -0.00608235 -0.46169132 0.254261 0.19474177 -0.09972436 -0.5232957 -0.08851599 -0.220448 0.051066063 0.59703267 0.2673591 0.17434123 -0.17456281 0.014397759 0.022688076 -0.061532643 0.20964617 -0.6676812 0.3146091 -0.17733066 0.19817695 0.037700836 -0.27105722 -0.08231138 0.3206041 0.4772032 0.0320903 0.23627047 -0.74002075 0.09253905 0.093886115 -0.09545726 -0.04533 -0.011070671 0.011125462 0.15655309 0.35906348 -0.10454597 -0.012416463 -0.064125314 -0.183142 -0.038633887 0.3323091 -0.08465484 -0.2167702 0.31410044 -0.14052446 -0.4754098 -0.5964001 0.11995602 -0.11801869 -0.32940704 -0.00070953957
2061 0.15098912 -0.13968082 0.26908365 0.7106176 0.32156733 -0.10628125 0.092669286 0.50273675 -0.12416714 -0.38218495 0.17061388 -0.13912602 0.2993517 0.25477332 0.2286632 0.08725208 -0.035821438 0.14409102 0.20321898 0.5553075 0.31659368 -0.034790933 0.72356397 -0.05916149 0.020583738 -0.39399084 -0.17673583 -0.16756362 -0.46738133 -0.34453186 0.20106833 0.10740063 -0.2868891 -0.42704478 -0.00017056553 -0.184181 0.1214177 -0.35001233 0.3786795 -0.011497986 -0.029847464 0.29207426 0.19247623 -0.14030829 0.028992454 0.24792543 0.2347652 0.11515785 -0.14378187 0.02912601 -0.025603836 -0.43968946 0.08890306 0.25192243 -0.113514595 0.20222574 0.0075412514 -0.060743686 -0.14417511 -0.1232717 0.3570708 -0.039209913 -0.11768992 0.032379698
2064 0.1939047 -0.18092695 0.31594273 0.51124954 0.060752023 -0.25560534 -0.047444455 0.50592774 0.091129474 -0.32734647 0.30244234 -0.08346131 0.39350992 0.30084795 0.18947224 0.07551452 -0.101702034 0.31304517 0.49226257 0.364014 0.12817283 -0.32650986 0.7376279 -0.28185564 -0.062085565 -0.391675 -0.22302689 -0.07686521 -0.11205894 -0.27122176 -0.13786371 -0.11540682 -0.18041676 -0.36121327 -0.04777095 -0.11535651 0.17419101 -0.39959413 0.4783096 -0.14905816 -0.035964303 0.49707088 -0.018411987 -0.19275609 0.22182594 0.48693964 -0.053061217 0.076293804 0.09513573 -0.062714584 0.13242376 -0.3651183 0.16512473 0.24854931 0.11123977 0.1237209 -0.05561069 -0.012058177 0.3482947 -0.12161576 0.01433924 -0.048915226 -0.2559413 -0.016882833
2098 0.10931489 -0.24531281 0.3915913 0.47114536 0.18574063 -0.24200638 0.07757248 0.4575033 0.059189737 -0.21669233 0.17377739 -0.28460324 0.6298403 0.17846453 -0.202138 0.16235138 0.006306651 0.127996 0.1881431 0.38040462 0.31984836 -0.0034696932 0.6394224 0.03208721 -0.03642686 0.0068941647 0.004017762 -0.06719104 -0.26533562 -0.25642788 0.11270669 0.23674242 -0.16286281 -0.47034794 -0.045891143 -0.461402 -0.07236992 -0.2585673 0.4335896 0.41966397 0.2341072 0.53332657 0.28853062 0.085939534 -0.11302843 0.04483946 0.14480352 -0.03961469 -0.15598541 0.0549287 -0.04062655 -0.53232497 0.115209095 0.20635933 -0.27397168 0.17115508 0.119658925 -0.30259633 -0.005851658 -0.01995824 0.45776868 0.06081528 -0.02718388 0.23812325
85 0.33701333 -0.27114344 0.4211762 -0.21181956 -0.15588889 -0.22830561 0.36902353 0.14797325 0.14077024 -0.10291915 0.2511591 -0.15963908 -0.20344652 0.051523563 -0.20611037 -0.08811021 -0.488559 -0.062719315 -0.16634166 -0.08271609 0.66694194 0.2131116 -0.00094123377 -0.055435836 -0.025117472 0.34980032 -0.0015071912 0.27945617 -0.5141064 0.5290614 -0.25899738 0.21888919 0.28636944 -0.30652273 -0.20820895 -0.0047959364 0.38454646 0.23061766 0.30405644 -0.44091636 0.1972437 0.3917779 0.23130451 0.19461337 -0.19902967 -0.20338544 -0.10843248 0.24433875 -0.103868015 0.15687256 -0.22970423 -0.06139728 -0.15210117 0.27633193 -0.20306359 -0.3095681 0.46233922 -0.1844796 -0.40218407 -0.5737639 0.2921337 0.13505942 -0.22525999 -0.06891958
6 0.35016492 -0.27271372 0.3304401 -0.15595628 -0.1576091 -0.12998189 0.3514473 0.18696463 0.09753066 -0.089956895 0.3411825 -0.08909331 -0.2634294 0.05596059 -0.06900654 -0.029148046 -0.51821756 -0.05931785 -0.21309486 -0.1430912 0.63807315 0.25102454 -0.03322621 -0.055338234 -0.05509932 0.3488484 0.012927392 0.2660086 -0.47973508 0.4735275 -0.30379018 0.20407104 0.20106065 -0.25579777 -0.15698615 -0.0059645283 0.3999606 0.24681757 0.274614 -0.4085025 0.17210817 0.37220085 0.13769391 0.17976847 -0.20765036 -0.21006651 -0.032356963 0.28104246 -0.053220592 0.15926692 -0.19647694 -0.10334165 -0.17767505 0.36199555 -0.12704061 -0.3496139 0.34839478 -0.22171113 -0.36589596 -0.60031366 0.30112526 0.08786951 -0.22389953 -0.050724395
2066 0.1567223 -0.20569393 0.49477512 0.42290923 0.1638657 -0.316271 0.07704414 0.39884445 0.029689094 -0.24037391 0.11399882 -0.31579575 0.68396825 0.2261308 -0.25028238 0.11253852 0.052717254 0.15683372 0.20084731 0.44468176 0.42848194 -0.050906647 0.5725227 0.10765526 -0.023065012 -0.028184548 -0.00029121415 -0.12019325 -0.23703985 -0.2129723 0.08235394 0.27341107 -0.09225528 -0.48075244 -0.07406984 -0.4698982 -0.11967583 -0.29717642 0.4516937 0.40034142 0.26469162 0.5456005 0.33847022 0.06759945 -0.028378187 -0.03192755 0.01723323 -0.052405555 -0.2137908 0.056881413 -0.07763033 -0.55962545 0.07610203 0.16315779 -0.28166428 0.14875114 0.19682261 -0.17846124 -0.021719351 0.006643735 0.4705129 0.101071045 -0.041752715 0.17520826
180 0.07977704 -0.12376242 0.15404105 -0.14776877 0.011343516 -0.17699668 0.34607536 0.1293568 0.37414962 0.2522301 0.34273425 0.0036316891 -0.1775409 0.29934633 -0.040357422 -0.00843179 -0.48791796 -0.10773501 0.06367053 0.08016612 0.4075527 0.19397922 0.1312508 -0.18959959 -0.048600987 0.16272403 0.030021027 0.1818641 -0.30608043 0.13562979 -0.31400093 -0.019405676 0.21496674 -0.21929304 0.041498113 0.4451311 0.34081557 0.028332124 0.44118884 -0.7214246 0.1667465 0.12874855 -0.2474961 -0.30247372 0.10586872 0.123126015 -0.081964724 0.22672267 0.15303227 -0.14196716 0.120860584 -0.3551939 0.13200702 0.32696107 -0.14992511 -0.18152303 0.4873809 -0.34283096 -0.1880906 -0.36803567 -0.26297954 -0.26811197 -0.38149875 0.3088698
31 0.04458408 -0.18970938 0.19828285 0.20696537 0.088588186 -0.12893069 0.20671485 0.1809405 -0.23520507 -0.031366393 0.47569767 -0.16148728 0.102636665 -0.015087628 -0.007089211 -0.25864446 -0.36728525 -0.17991628 -0.07745295 -0.14620778 0.2316788 0.20002235 0.07744511 -0.16123737 -0.16351093 0.19530775 0.17298092 0.26421288 -0.21186659 0.19493656 -0.11308772 0.14867745 -0.17713524 -0.30739927 -0.13538873 0.42504877 0.38892055 0.18778293 0.36067757 -0.25451088 0.2545802 0.06671113 -0.020851772 -0.16363254 -0.09489528 -0.10081415 -0.029109204 0.04566462 0.02234936 0.075828284 -0.098659426 -0.115611605 0.035412557 0.2684939 -0.04283478 -0.20984642 0.44330296 -0.102982685 -0.12248508 -0.33090872 0.07737206 -0.3683504 -0.34700286 0.15514287
2117 -0.03611701 -0.33679235 0.22759292 0.49283034 0.187615 -0.3278997 -0.071773656 0.1300551 -0.40257448 -0.3561808 0.3058478 -0.20139533 0.3943212 0.027565423 0.026819045 -0.06268945 -0.18209602 0.20710039 0.13527004 0.3028079 0.19228198 0.044695217 0.36560714 -0.12441777 -0.09755732 -0.0913345 -0.14006126 0.1487843 -0.0126538975 -0.10111744 -0.06085192 0.103006735 -0.32026553 -0.5504441 -0.13754323 -0.11657138 -0.01051483 -0.2548997 0.43454885 0.09596652 0.2764112 0.27363855 0.17528488 -0.1577025 -0.025440482 0.13039434 -0.028319947 -0.18944092 0.048802014 0.12557863 -0.07469104 -0.2211875 -0.023151858 0.2958555 -0.04582111 0.009355791 0.08962779 0.022071568 0.21510999 -0.27942583 0.001735668 -0.2162421 -0.29927662 0.12174334
4029 0.64310676 -0.22703032 0.7171197 0.48881254 -0.11752563 -0.58419245 0.31102663 -0.27453893 -0.14286885 0.0534044 -0.569258 0.08170322 0.58320946 -0.27153528 0.4121267 0.09941372 -0.43960306 -0.21477236 -0.42454174 -0.17229427 0.12574095 0.20885868 0.503809 -0.21043617 0.030391416 0.19074702 0.40453485 0.42881373 0.0038174037 -0.095337875 0.40092996 -0.2194995 -0.29019094 -0.61892784 -0.37433586 0.16911979 0.16630054 0.100851186 0.06537199 0.16880792 -0.48680374 0.44947788 0.08260204 -0.6453381 -0.035413716 0.075499676 0.026597742 -0.49040097 -0.12929805 -0.15146206 0.11402542 0.43446916 -0.035262812 0.25364277 0.19939132 -0.018145254 0.6668269 -0.057016846 0.06087381 -0.5185451 -0.09464764 -0.3439831 0.09542106 0.08714047
128 0.26609787 -0.047079742 0.44145203 0.24181563 -0.014470845 0.37154302 0.32216832 0.2368345 -0.20258524 -0.045539662 0.5701334 -0.1110828 0.086832866 0.03876692 0.08991549 -0.32822528 -0.035373442 -0.2976329 0.23603773 -0.3953986 -0.05321484 0.37321925 0.17696562 -0.18089426 0.019683234 0.34034044 0.44944447 0.38846838 -0.18021445 -0.11667453 -0.06635478 0.23876907 -0.29664922 -0.51274085 -0.11617358 0.4313951 0.6104354 0.028957805 0.180997 -0.38518 0.29706562 0.055376034 -0.14971189 0.06593843 0.071495585 -0.21646875 -0.262115 0.36218083 0.06593501 0.19212241 -0.017748022 -0.01879778 0.065697804 0.38695183 -0.023499072 -0.15833099 0.5641371 -0.107664324 -0.19062924 -0.18733332 0.28599435 -0.31670663 -0.38188037 0.01279305
8 -0.13940285 -0.204977 0.2124108 -0.10842025 -0.119303174 -0.27836487 0.09675708 -0.010392241 0.25753015 0.33470845 0.278809 -0.46012905 -0.2885068 0.15344295 -0.13070114 0.21089284 -0.4951017 -0.17037769 0.23727734 0.008267063 0.60448295 0.35599113 0.05600144 0.0475781 -0.19707349 0.24213038 -0.024663586 0.17975892 -0.20827578 0.008103963 -0.2970759 -0.14571732 0.0429271 -0.14750373 -0.0638116 0.54892033 0.5761043 -0.20546438 0.26125073 -0.4251433 0.43073404 -0.047409926 -0.2745175 -0.3231292 0.24860708 0.17791519 -0.014917612 0.21974722 0.2366595 -0.06687574 -0.1362675 -0.29576337 0.21977958 0.63104343 -0.057062317 -0.39558455 0.6119524 -0.6314142 -0.4529721 0.14750445 -0.38223875 -0.09939517 -0.27146134 0.29529223
15 -0.20375715 -0.283482 0.22152035 0.04230608 -0.1452963 -0.27159733 0.09111292 -0.09659921 -0.041110862 0.2348128 0.2533231 -0.5832099 -0.15901642 -0.042036586 -0.11310473 0.08363352 -0.58899146 -0.20352112 0.19110592 -0.07401506 0.45761615 0.43989122 0.0005072208 0.24003272 -0.27132413 0.341316 0.081393205 0.20547332 -0.19371685 -0.08916398 -0.14809379 -0.04476732 -0.23502946 -0.29001603 -0.09638187 0.527579 0.54378843 -0.1555747 0.15155931 -0.17245564 0.50211513 0.0070990664 -0.2208538 -0.26654205 0.05894867 0.13926448 0.07238575 0.057196785 0.170735 -0.0043321876 -0.28872216 -0.25953892 0.17734674 0.53011686 -0.072932415 -0.4306325 0.6115148 -0.5385471 -0.4071656 0.2023283 -0.19548512 -0.09001001 -0.3102212 0.323495
4023 0.3898574 0.16371393 0.26596662 -0.13620053 0.5984039 -0.22090754 -0.13335939 0.5566516 -0.2421888 0.39113674 -0.122497894 -0.3858725 -0.059120666 0.49039447 0.39880124 -0.18483828 -0.08858461 0.5233205 -0.1603959 0.17830952 0.57716465 0.007011378 0.44111335 -0.7575917 -0.35837665 0.18211114 0.18216984 0.20022875 0.23026434 0.057273973 -0.430703 -0.15794516 -0.33261645 -0.25625667 -0.42513332 -0.076787874 -0.3861172 0.4168494 0.32248595 0.09828284 -0.46852452 0.37401754 -0.51262784 0.0122289555 0.22818497 0.495703 0.12215955 0.007284261 0.423244 0.4921692 -0.4639177 -0.34252 0.6106893 0.20795059 0.5391402 0.21413098 0.073825054 -0.36204192 -0.045141686 0.44498646 -0.11201985 -0.080833316 -0.28093454 0.23139668
4035 0.5125952 0.13469009 0.53901553 -0.10758541 0.64493865 -0.28775942 0.049189772 0.37599838 -0.43071404 0.25261593 -0.09295276 -0.61828494 -0.12583314 0.43727434 0.27990875 -0.15398164 -0.19453904 0.34725606 -0.42430127 -0.07772502 0.49260128 -0.06412457 0.46893787 -0.7091983 -0.34895292 0.41008922 0.16949113 0.335323 0.3073946 -0.0300257 -0.523261 -0.07018404 -0.5177884 -0.42164916 -0.5847646 -0.11596347 -0.6186208 0.36967373 0.3606782 0.2435094 -0.43935552 0.32487383 -0.53396094 0.0031866261 0.13433369 0.5003183 -0.13008298 -0.0029114513 0.42611322 0.6746697 -0.7961938 -0.3940533 0.5885258 0.08672144 0.5743804 0.19984987 0.07852638 -0.37519023 -0.08610583 0.58742714 0.07964725 -0.20095825 -0.2824858 0.08839458
4033 0.6769969 0.14860176 0.657556 -0.14372078 0.7159237 -0.3133458 0.056180652 0.28511947 -0.45069116 0.23874933 -0.067857035 -0.66295576 -0.27701637 0.5264081 0.31816316 -0.2491577 -0.051779248 0.00039804057 -0.6441225 -0.026052328 0.5863208 -0.017709935 0.3619658 -0.6515026 -0.48362306 0.06921587 0.3348609 0.39558715 0.22117533 -0.327691 -0.56072986 0.1412285 -0.60399824 -0.5553126 -0.5526772 -0.16714819 -0.6849541 0.48433542 0.26310113 0.3503195 -0.3497324 0.36108127 -0.464604 -0.36862853 0.0711284 0.49043474 -0.35623616 -0.116379395 0.17186977 0.6898946 -0.94119745 -0.41924733 0.35075724 -0.15894397 0.5346115 0.20465103 0.17823157 -0.3670021 -0.010123227 0.68813187 -0.06500479 -0.17754795 -0.25058925 0.24984223
2102 0.112966806 -0.1874976 0.48012155 0.39933017 -0.19026 -0.2567939 -0.42090592 0.5660246 0.136471 -0.74191594 0.5781558 -0.1473028 0.28101823 -0.032021597 -0.23377822 0.31433842 0.08969502 0.3353561 0.39191914 0.51970726 -0.12919413 -0.11797886 0.6609348 -0.20879939 -0.065770894 -0.105138525 -0.55491024 -0.026812177 -0.35551846 -0.43185622 -0.3743294 -0.29750443 -0.046466503 -0.20195886 -0.29216942 -0.08768479 0.555413 -0.43341598 0.49735558 0.123986654 0.090397045 0.2989353 -0.0695163 -0.38604364 0.32259762 0.64576936 -0.046970077 -0.005217699 0.22971241 0.13332693 -0.2666246 -0.09197926 -0.23580578 0.6496821 0.61988014 -0.25057775 0.018235635 -0.10433457 -0.31485227 0.43854722 -0.008433599 0.28040302 -0.018861763 -0.12701918
2058 -0.14179805 -0.2295798 0.5691937 0.4053853 -0.17027621 -0.19749436 -0.40935323 0.58572346 -0.2428149 -0.95095944 0.5758584 -0.11333907 0.28363848 -0.28396147 -0.25401673 0.21733418 -0.095869 0.26541665 0.046811204 0.3490119 -0.20399019 -0.07017702 0.31513885 -0.13760158 -0.07911249 -0.06133221 -0.28857276 -0.08757309 -0.26278776 -0.31370825 -0.43587548 -0.14546703 -0.09444529 -0.30428222 -0.12864019 -0.029907038 0.43348703 -0.24962823 0.28643286 0.20174743 0.24329713 0.32569903 0.043064415 -0.41964877 0.10858049 0.38010728 0.0539502 -0.10173768 0.036935627 0.33306757 -0.4394305 -0.09769901 -0.27059177 0.59962124 0.6142105 -0.19842695 0.04745755 0.055862013 -0.28698573 0.27098787 -0.013423452 0.21418716 -0.15224934 -0.2790341
2111 0.3964979 0.6771647 0.18899782 0.8797824 0.021024307 -0.4483745 0.6064547 0.1916036 -0.37077227 0.20828697 0.29988867 -0.31661844 0.2086003 -0.12294351 0.12602103 0.49223438 -0.07842741 0.16239955 -0.10077728 0.6344841 -0.028115977 0.14653207 0.4928687 -0.26421115 0.30643457 0.041430805 0.22169682 0.30860546 0.3283676 -0.4316012 0.15405157 0.2718327 -0.053405724 -0.73829925 -0.19555208 -0.10351128 0.015246964 -0.4644794 -0.048420206 0.18680312 0.14191446 0.5531117 -0.20645377 0.13051848 -0.16419005 0.24674211 -0.17744732 -0.024035286 0.37718314 0.7420286 0.14789489 -0.0011230608 -0.20502798 0.44623265 0.017552186 0.039501764 0.33989915 0.005180346 0.37731597 -0.5538072 -0.0031484305 -0.061260592 -0.13201171 0.1277959
4034 0.16727138 0.35334906 0.5464181 0.07129683 0.49009877 0.16379267 0.91232413 0.20100248 -0.7825987 0.036253452 0.6446787 -0.23881574 0.11434646 -0.31815135 0.8643364 -0.019730045 -0.12270705 -0.31892306 0.15663183 0.29076743 -0.2995277 0.10095377 0.31412467 -0.0060534286 0.4237175 0.4561197 0.6822253 0.19691302 0.56247205 -0.008168406 -0.29246616 0.437179 -0.24803823 -1.0185682 -0.049463626 -0.47334957 0.43467727 0.37318817 -0.40654337 -0.049778502 0.4178612 0.37661034 -0.13265733 0.07301449 0.14455467 0.21696791 0.09406527 0.06801234 0.4795467 -0.16002662 -0.11716118 0.40340507 -0.037415773 0.5831355 -0.35504082 -0.13942938 0.62261575 -0.29956344 0.10163781 -0.3085635 -0.30475825 -0.33161813 -0.12994745 -0.46592122
4036 0.74414563 -0.2690745 0.31691787 0.07249868 0.86323875 -0.18929638 0.5287639 0.21911483 -0.2433536 -0.8572611 0.111941926 -0.07650134 -0.021112738 -0.22595622 -0.11760887 0.6490258 0.025292797 -0.05539898 0.16594766 0.86426514 0.3795197 0.24501608 0.03125247 -0.8555932 -0.393047 0.13172345 -0.328166 -0.24612895 0.4897984 -0.055358466 -0.37383375 -0.17231941 -0.27416453 -0.4261152 -0.3869821 -0.119681425 0.103383504 -0.19529815 0.14301068 0.8490784 0.21587263 -0.18568955 -0.12351646 -0.2629978 0.12022555 -0.10698558 0.087185584 -0.04484378 0.08041178 0.3057954 -0.3720622 -0.22487539 -0.19240436 0.58048284 0.34514433 0.17697248 0.082737856 -0.21973565 0.09008211 -0.16128814 0.38202968 -0.69237787 -0.57578874 0.120196186
2210 0.3823265 -0.29861763 1.2016383 0.42599538 0.31523633 -0.14742707 0.17131752 0.26717952 -0.3632668 -0.17867267 -0.0864679 -0.3771822 -0.1469015 0.8315487 0.033653364 -0.32872573 -0.23585223 0.31104907 0.05128189 0.44956863 0.39597276 0.110118 0.4566342 -0.6309638 -0.18252668 -0.2365234 -0.33172378 0.4684513 -0.29655704 -0.3370502 -0.71385854 0.12451381 -0.7955221 -0.802544 -0.3352761 -0.7712829 -0.8260481 0.20566277 -0.018846694 0.41584045 -0.33452386 0.6931019 -0.4944671 -0.92887944 0.06179928 0.61845213 -0.19463357 -0.34743613 0.26009607 0.57813257 -0.6734979 -0.39823627 0.56705767 0.3388416 0.4100392 0.57190174 -0.43122345 -0.29457214 0.15069775 0.25917134 -0.28933358 0.36070576 -0.37306017 0.05715204
2089 0.3821319 -0.23530273 0.95661 0.48565614 0.2866119 -0.08409965 0.16694695 0.44200814 -0.24273185 -0.20603141 0.09383655 -0.38661447 -0.0457455 0.6714637 -0.0008038972 -0.2359123 -0.36774668 0.49236566 0.27845842 0.49065933 0.4133394 -0.083459914 0.7106368 -0.65369123 -0.22138865 -0.025307637 -0.4094261 0.4135865 -0.11943907 -0.16814801 -0.4477238 -0.017278684 -0.67940414 -0.65996057 -0.3126913 -0.7971467 -0.674399 0.1424064 0.19081242 0.248322 -0.55374277 0.6033565 -0.49552017 -0.49766535 0.24101108 0.78159237 -0.12920694 -0.23026447 0.4876063 0.64568055 -0.5367213 -0.48260084 0.62839437 0.43504062 0.4788323 0.585388 -0.45614806 -0.3650452 0.100389846 0.22342387 -0.061644614 0.25235018 -0.4103834 0.032393392
2463 0.22346796 -0.45203593 0.9301259 0.56908596 0.23101133 -0.0024686996 0.18912283 0.26734325 -0.4280145 -0.25965577 0.014884389 -0.49497 -0.17677483 0.4284318 -0.04222362 -0.18952306 -0.3334315 0.38862324 0.091702186 0.40048602 0.39993772 0.12241706 0.57148266 -0.48686463 -0.3256694 0.09374566 -0.21321185 0.6413719 -0.15728065 -0.081473894 -0.39314178 0.14925508 -0.9532228 -0.7499145 -0.3362899 -0.6503356 -0.52561605 0.2171828 0.03485124 0.49991584 -0.25742167 0.36236173 -0.37900215 -0.48331288 0.0180471 0.6863332 -0.15867609 -0.42991468 0.37138486 0.8236032 -0.7443733 -0.33478275 0.47811157 0.41918984 0.3271094 0.4681165 -0.30409187 -0.21903919 0.09461236 0.25704035 -0.052057423 0.020326545 -0.31711462 0.032512005
2095 0.78577125 -0.29343575 0.30967373 0.09821924 0.8877844 -0.16163734 0.52940756 0.20981309 -0.24961804 -0.90920407 0.15331374 -0.12323728 -0.020296972 -0.1402378 -0.14263758 0.6748756 0.05401246 -0.11448106 0.13545449 0.8864612 0.43391615 0.28008467 0.02483449 -0.87656885 -0.37532324 0.13755341 -0.34358844 -0.25118855 0.51147205 -0.042651087 -0.40662205 -0.20664796 -0.303395 -0.42271402 -0.39754197 -0.11197387 0.08407149 -0.22326624 0.13524313 0.8778639 0.24244192 -0.19038272 -0.17513168 -0.23247305 0.13817354 -0.15523157 0.106980056 -0.039590295 0.0937179 0.29473412 -0.35349882 -0.25641245 -0.19488987 0.59674823 0.37626714 0.18716751 0.033420075 -0.21062815 0.088762924 -0.20285286 0.38753426 -0.7059193 -0.5403687 0.084543034
74 0.5528818 0.46045932 0.28778508 -0.5020057 0.36575133 -0.15797636 -0.031832587 0.753056 0.32344604 0.15906566 -0.124556534 -0.32572186 -0.42712647 1.1997545 0.50705904 -0.1069048 -0.7685625 -1.0987108 -0.5580168 0.16261926 0.6538607 0.19393763 0.20896602 -0.29589298 -0.47888634 0.57135403 0.40659967 0.24514377 -0.26051375 0.044023156 -1.2758497 0.22663248 -0.56585246 -0.34993753 -0.47309318 0.4250185 -0.37845016 -0.12778868 -0.23317309 -0.18072627 0.43814045 0.82745254 -0.6909168 -0.1582704 -0.28620097 0.31847954 -0.05085622 0.43741897 0.22863227 0.5568606 -0.25650546 -0.27211913 0.85113657 0.082033426 0.53581214 -0.09562181 0.5055362 -0.45089972 0.14465319 0.1265621 -0.047285605 -0.56042093 -0.49740204 0.1654865
432 -0.33419374 -0.20596094 -0.19256641 -0.21951436 -0.13282819 -0.067796595 0.39440632 0.6212031 0.02632064 0.2030513 0.04206673 -0.86731446 0.42287117 -0.29139006 -0.1938059 -0.20013946 -0.03086983 0.33606702 0.4321745 -0.4904624 0.46518123 0.021117752 -0.23827744 -0.06217819 0.66835386 0.18706691 -0.25470433 -0.056843504 -0.6933364 -0.14961936 -0.48983222 0.37931007 -0.86106426 -0.123929985 -0.009592091 -0.031493336 0.68690073 0.37858877 0.07557413 -0.5923674 -0.26377448 -0.02744054 -0.090531945 -0.2718846 0.1935037 -0.3383365 -0.32139018 0.14765848 0.08618202 0.5602881 -0.18239532 -0.115396015 -0.43844804 0.7035749 0.59229946 -0.3045286 0.31149876 -0.67034024 -0.004193068 -0.42038527 0.39873362 -0.74979705 -0.047210082 0.20525345
134 0.4657824 0.37376863 0.25587836 -0.5452914 0.40812296 -0.19771992 0.040037695 0.5734514 0.4152306 0.2818079 0.11173816 -0.3592147 -0.36940983 1.1178265 0.44581825 -0.07750274 -0.863261 -0.7193441 -0.45028484 0.04565851 0.5972195 0.2543711 0.3342237 -0.36576092 -0.39596853 0.74027073 0.2979017 0.21906337 -0.24262281 0.18418416 -1.1074785 0.080296606 -0.3633878 -0.25789246 -0.46880132 0.43852413 -0.18399855 -0.01843233 -0.082421385 -0.45435837 0.1487348 0.8002572 -0.69039655 0.07236425 -0.044280242 0.4482286 0.08233709 0.37690124 0.41875014 0.6153257 -0.25002795 -0.35400978 0.9654385 0.32558635 0.4091674 -0.09396507 0.3441914 -0.51494986 0.017343728 0.12119152 0.15045737 -0.6586375 -0.515793 0.27962977
255 0.45361415 0.353741 0.10902285 -0.37954885 0.26876888 -0.15381508 0.0427808 0.63174367 0.07227692 -0.1909948 0.06672735 -0.28670064 -0.27086836 0.868693 0.5283321 -0.08005667 -0.739341 -0.76283574 -0.5778822 -0.018154124 0.4781376 0.2774312 0.40629646 -0.29054016 -0.3748942 0.7319102 0.3323294 0.3630193 -0.23984224 0.09816534 -1.1048731 0.25009918 -0.6044431 -0.28835317 -0.69483453 0.5194215 -0.2870546 -0.020179741 -0.120839156 -0.1403097 0.41776603 0.567258 -0.37069944 0.14220472 -0.23028974 0.46157068 0.022420516 0.27545515 0.2775795 0.73806417 -0.42264786 -0.036234032 0.88956803 0.37395012 0.43859532 -0.087402456 0.50678337 -0.35452086 0.09959939 0.3029597 0.15832508 -0.73536086 -0.4977941 0.1168195
570 0.67159796 -0.313733 0.4346882 0.3550155 -0.13586633 -0.34076503 0.04072696 -0.34810194 -0.15765004 -0.07917811 0.33680752 -0.13518293 0.022424245 -0.25664908 0.43009624 -0.5225105 0.30066517 -0.80375946 -0.560176 -0.4264988 0.8690023 -0.13263865 -0.22428562 0.7957178 -0.38318852 0.015803225 -0.33758494 0.2677508 0.029921332 -0.16906683 0.13253522 -0.33214852 -0.17726478 -0.11596213 -0.013945144 0.06688063 0.78016645 0.36506972 0.41674423 -0.7331199 0.0071778237 0.6107144 -0.4222087 -0.011339123 -0.082620814 -0.23897341 0.03394896 0.16323924 0.34713492 0.5494032 0.36468628 0.009855773 0.1506632 0.46678054 0.1905294 0.1930235 0.7846872 -0.5778743 -0.21585691 -0.54829234 -0.17644219 -0.52670574 -0.019688185 0.38207802
2700 -0.3300508 -0.5615108 -0.36837685 0.03698039 0.026245695 -0.16015358 0.34046802 0.14113134 0.090054065 -0.11297974 0.35527173 -0.8387172 0.9335598 0.15515997 -0.15966564 0.08368558 0.44158283 0.44792166 0.07401151 0.27175578 -0.16375773 0.30517954 0.15204948 0.49168113 0.51252156 -0.10005005 -0.46759376 -0.07945025 -0.3327168 -0.23050585 -0.63412356 -0.18875481 -0.74968994 -0.5431534 -0.08911441 0.30449933 0.5208981 0.4020497 0.54819053 -0.23479393 -0.02284868 0.44846126 0.10060506 -0.04286412 0.5033768 -0.10593544 0.0067223604 -0.36459327 -0.27000272 0.5768124 -0.08262011 -0.59627634 -0.089634135 0.02364916 0.7341161 -0.14006022 -0.03339117 -0.104145676 -0.1398625 -0.41090438 0.21037616 -0.24060544 0.16301213 -0.2031043
3993 0.78234386 -0.4958867 -0.27676016 -0.24186909 -0.038928337 -0.5159201 0.40914083 0.3508994 -0.58819085 0.18752508 0.33098304 0.19322094 0.079200804 -0.6638918 0.013224649 0.6793282 -0.11182076 -0.25539666 0.16685852 0.506449 -0.13903531 0.46214378 0.68184376 -0.37662768 -0.055480424 0.011794348 0.11868395 0.03676515 -0.084976114 -0.08211451 -0.29742613 -0.3582158 -0.066217616 -0.13593017 -0.11830821 0.13409299 -0.012839148 0.10799089 0.032131255 0.42952564 -0.08992552 0.361231 -0.14858766 -0.23951629 0.030006144 -0.26898795 -0.25620103 -0.24444601 0.047930084 0.5963164 0.2688528 0.005187157 -0.34039986 0.47720107 0.05157563 0.12343843 0.30343068 0.01134678 -0.5949565 -0.23480527 0.082820795 -0.36383104 -0.18541688 0.1913622
3963 0.086961016 0.19789013 0.17067347 -0.037880175 0.2292973 -0.2865118 0.22080207 0.483466 -0.033784594 -0.02948104 0.14636232 0.045494597 0.311146 0.6208097 -0.05465961 0.2602821 0.22283244 -0.19499466 -0.51693356 0.56452584 0.32775763 -0.041232444 -0.12964705 0.010840262 -0.19542773 0.3824004 -0.17293897 0.34173274 0.02904483 -0.20104042 0.24149802 -0.46165597 0.28447977 -0.37171304 -0.10749782 0.112951465 0.34228975 -0.14624615 0.033227287 0.48242053 0.37607098 0.28075147 -0.5250149 0.2861316 -0.31792986 -0.14753833 -0.08979641 0.29402736 0.0929076 0.34832948 -0.46961445 0.52969235 0.015126092 0.4135727 0.5448863 -0.10005605 0.33969834 0.07146154 0.24057187 -0.009107675 0.16588168 -0.79068327 -0.36187378 0.009382224
3988 0.41655 0.28706747 0.08470495 -0.21048804 0.24369217 -0.26663598 -0.020035367 0.2490832 -0.03619784 -0.3019119 -0.16195764 -0.538199 0.16736275 -0.54447865 0.05921126 0.4395522 0.07891891 -0.3620506 -0.25799453 0.57898915 0.18857852 0.60501415 0.112424694 -0.5209912 0.035797656 -0.13227533 0.28327325 -0.3710024 -0.17220967 -0.34721053 -0.37651464 0.10398282 -0.16919519 0.015981393 -0.5886961 0.42417297 0.17198953 0.051751915 0.106029466 0.16933747 0.20625867 0.7969107 -0.5096159 0.52121323 -0.16907589 0.029244443 -0.04426211 -0.06327739 0.22000854 0.49108025 -0.039613232 0.23007803 0.24043809 0.5254857 0.09644852 0.0118130585 0.045029 0.19475627 -0.22572862 -0.19910188 0.12286389 -0.57976454 -0.29031184 -0.052122943
3 0.26876757 -1.4888397 0.2595643 -0.51871777 0.4432813 -0.12581502 0.31663084 0.35191014 0.49586555 -0.17663336 0.34416518 -0.3365022 0.057171363 -0.21816517 0.14061794 0.16721076 0.11572243 -0.30372715 -0.7075691 -0.5669409 0.35041437 0.4948088 0.1859542 -0.4167964 0.18586296 -0.32164842 0.38599256 0.6069444 -0.20649542 0.029623425 -0.23790498 0.00042468717 -0.314676 -0.3360821 -0.13594563 -0.14557537 1.1295254 -0.19727182 0.053312834 -0.20381773 0.38160828 -0.3768378 -0.17117642 0.04386897 -0.17808759 -0.17968409 -0.20140806 0.01896372 0.114847966 0.3414217 0.5224194 -0.30927363 0.15048896 -0.07670638 -0.042983904 0.44423744 0.41625875 0.035748143 -0.054725815 -0.18333106 -0.16396601 -0.4928663 0.03563623 0.21522258
3999 0.40404943 0.09922321 0.31569204 -0.22730173 0.04572407 -0.1375708 0.0036479265 0.8137854 -0.5372281 -0.5288437 0.04253251 0.1454835 0.5595132 0.03284251 -0.006249906 0.21815158 -0.052418016 0.022261145 -0.20695223 -0.035607785 0.569221 0.4903978 -0.22302482 0.09898807 -0.1464184 0.58677477 0.1014664 0.45159298 0.095568754 -0.5819143 -0.22293514 0.07139666 -0.42393208 -0.35419762 -0.054269765 0.1322303 0.886192 0.06862778 0.113518655 0.06290742 -0.6505363 0.0031448884 0.07513194 -0.41212067 -0.030254595 -0.010610966 0.19882803 -0.38349676 -0.18299334 -0.42305008 0.41359454 0.012613185 0.23299697 0.4349345 -0.08959092 -0.24162942 0.06748843 0.053638864 -0.18090728 -0.011761539 0.011421481 0.2031094 -0.10693253 0.15437615
3985 0.39835432 -0.19011147 0.59969175 0.13152045 -0.41438282 -0.16692506 0.23262273 0.7819024 0.116832346 -0.1765873 -0.1957842 0.3572067 0.32466313 0.044644296 -0.08258398 -0.23064321 0.045759346 0.4066976 -0.6566961 0.30199766 -0.12154376 0.5776489 -0.090129845 0.15913548 -0.13603339 0.15379828 0.11810981 -0.03219821 0.60261035 -0.17374295 -0.38620657 0.26191375 -0.51820934 -0.1302467 -0.094158 0.045220725 0.6200989 -0.09492013 0.26905474 0.015259097 -0.45078248 -0.15269005 0.103482425 -0.37189612 -0.30078655 0.30172274 0.032284234 -0.24617721 0.38120577 -0.237589 -0.037421145 -0.33031553 -0.12468717 0.20733637 0.051583886 0.039752062 0.7306055 -0.28450537 -0.42697474 -0.051137194 0.17273122 -0.11175679 -0.08737125 -0.03768272
3997 0.6647952 -0.4324101 0.10454087 0.55357534 -0.23732574 -0.17715572 -0.107957706 0.39153922 0.6620534 -0.11004725 0.011323753 0.25644732 0.3693692 -0.06553053 0.037533373 -0.47769397 -0.27661082 0.41440758 -0.28024065 0.38603213 -0.09612718 0.44566426 0.30126664 0.29628065 0.7119068 0.14460239 0.21095712 0.32913107 0.22521915 0.06900525 -0.31289425 0.27595085 -0.15907782 -0.07943396 -0.21331492 0.32853144 0.038842995 0.017475495 0.5288243 0.257257 -0.12266677 0.051865205 0.19317642 -0.27323455 -0.082053676 -0.2627021 0.28880483 0.12864001 0.23533866 0.025466101 0.038647234 0.35833022 0.017203648 0.5584546 0.46158847 0.007914983 0.73633885 -0.175672 -0.27349448 0.49953488 0.09851997 -0.20865417 -0.44868198 -0.034076158
3973 0.271515 0.022916205 0.47742695 0.27872995 0.10614951 -0.38142982 0.25720188 0.09953759 0.0059111784 -0.21766555 0.09642361 0.61918104 0.3208556 -0.5730144 0.08231004 -0.20856719 -0.23099317 0.1708336 -0.6820395 0.8318342 -0.25944138 0.25745344 0.21806344 -0.2460793 0.5442126 0.38518283 0.21927375 0.4988109 -0.01738428 -0.09189465 0.030313028 -0.017604971 -0.4950779 -0.032337785 -0.42065632 -0.13050646 0.2775357 0.101682454 0.39874268 -0.033001054 -0.23219454 0.07145812 -0.2214521 -0.118443675 -0.13748492 -0.09918732 0.19246875 0.4798145 0.33899406 0.15091717 -0.07464132 -0.21963891 -0.18167436 -0.009983217 0.46943703 -0.20516267 0.6912086 -0.29208687 0.3958912 0.035951182 0.28229013 0.17875779 -0.31161943 0.33072895
4007 0.0088682845 -0.07634813 0.41968343 0.33898416 0.14181219 -0.37676406 0.27862743 0.0651217 -0.27642092 0.38073143 0.8383158 0.12917876 0.051056113 -0.2986829 0.30671045 -0.1944261 -0.11755984 0.031796474 -0.44373548 0.27885988 0.77809745 0.5154366 0.31172556 0.46365726 -0.07648574 0.030142464 0.1090591 0.17920198 0.2765739 -0.43879762 0.110660724 -0.11051845 0.06506441 -0.03254283 -0.3429682 -0.14865133 0.33482644 0.21884525 0.63055676 0.03550009 -0.17422815 0.3910324 -0.3607666 -0.043688774 0.16639812 0.078960896 0.048274804 -0.017771468 0.30558464 0.5206592 0.30700433 0.5152243 -0.036224272 0.38216743 0.13461229 0.1085023 0.20216326 -0.07595455 0.250804 -0.2807471 0.20674491 -0.40959445 0.5662257 0.48868665
3971 -0.18266179 -0.4024422 0.308329 0.5088215 0.3411778 0.09477818 0.5889782 0.06725154 -0.14266227 -0.1543766 0.018230924 -0.31447256 0.032904923 -0.17245567 -0.058123928 0.11217006 -0.62770057 0.27891356 -0.16435666 0.7328058 -0.048579287 0.32766986 -0.27224678 -0.24688266 -0.17162068 -0.28557122 0.38086233 0.82255065 0.17836608 -0.12889701 0.12076898 -0.21542364 -0.28937238 -0.38826713 -0.046512842 0.058747962 0.19853267 0.10923863 -0.071825325 -0.2976277 -0.57423556 0.67210037 -0.14942744 0.07318943 -0.28101018 -0.31517348 -0.32765898 0.15517679 0.48964953 0.10793736 0.060808685 -0.040554527 0.068470016 0.4784699 -0.038818587 0.29794177 0.3641107 -0.30155277 0.38655242 0.23429762 0.3099565 0.43584543 -0.1794686 0.267249
2373 0.14129327 -0.7038007 -0.29390553 -0.09480947 -0.24260165 0.18783933 -0.40359434 0.16779153 -0.042277593 -0.14595103 0.71258926 -0.3039172 0.96169674 -0.2391002 0.4659392 -0.12177162 0.030804506 0.5369843 -0.268878 0.9608493 0.18687561 -0.18352169 0.36903495 -0.39886564 -0.68921375 0.261302 -0.05909712 0.16754976 0.38778895 -0.6366292 0.0739365 0.40047055 -0.3789507 -0.19422147 -0.004002081 -0.025305849 0.25400063 0.05169451 0.084757194 -0.14573921 0.29493284 0.2926769 0.18244578 -0.14742939 -0.34031758 0.18424785 0.14113894 0.7509832 0.19515663 0.037441254 -0.053082727 -0.16319688 -0.029592354 0.80609643 -0.0009986379 0.1450347 -0.23977266 -0.98535275 0.18463697 -1.0068425 0.057762716 -0.40964195 0.23429175 -0.25197333
4003 -0.47926188 -0.08718902 0.3304269 -0.36735374 0.11176638 -0.052666213 -0.15482943 0.5760795 0.003972091 0.35845006 -0.08000962 -0.5671962 0.56773245 -0.5006901 0.43395713 0.34847507 0.33423293 -0.19204788 0.067544274 0.1386044 -0.16485754 0.35440978 0.16241859 0.23487186 0.3145034 -0.005632903 -0.5229632 -0.06363595 -0.13052109 0.12259475 -0.25102887 -0.016084706 -0.19618548 -0.39416474 -0.20194781 -0.12463286 0.63282824 0.3900826 0.18176039 -0.18052164 -0.0760917 0.22404319 0.12471761 -0.3100283 0.08082784 -0.44297993 0.15290092 4.1190615e-05 0.16735084 0.6985408 -0.17852958 -0.45615652 -0.29287425 0.059391223 0.47640252 -0.18225029 0.16398442 -0.32940534 -0.31989646 -0.3513557 0.23271194 -0.35715547 -0.28090012 0.08062697
3987 -0.20332088 -0.534123 -0.2734134 -0.0990499 -0.28708604 -0.09323731 0.22763038 0.5907541 -0.3038439 -0.33447263 0.37048694 -0.25681484 0.096578375 0.043750245 -0.4384415 0.13349655 0.2575559 0.35216093 0.26505566 0.13388759 -0.0142435925 0.48293355 0.14339587 0.13294025 0.40340766 0.24392202 -0.13729912 -0.071314886 -0.12039203 -0.17347619 -0.27410454 0.3154541 -0.31264886 -0.20617796 -0.030289294 -0.2783293 0.58642024 0.13580966 0.027980141 -0.71741486 -0.17084974 0.3967508 -0.51964736 -0.016533848 0.1197003 -0.2878005 0.21864834 -0.11592602 -0.318073 0.11171963 -0.25504345 -0.09498308 -0.093757145 0.16017264 0.6643543 -0.2624949 0.42112145 -0.40871793 0.3130722 0.14405213 0.04511622 -0.7129599 0.4155219 0.11981505
3954 0.18784533 -0.36994392 0.09882428 0.11800926 0.06424728 0.34165555 0.43148664 0.4527197 -0.22378388 0.12746276 -0.18056555 -0.975755 0.13848571 -0.20533761 -0.27315685 -0.39554754 0.32623783 0.38789836 0.33615693 0.26110777 -0.036789723 0.15366851 0.04853367 0.22375308 0.1080687 0.16415791 -0.032168824 0.61058646 -0.58711684 -0.574135 -0.91460097 -0.22258869 -0.2425492 0.008921532 0.22280483 -0.08505618 0.3231509 0.4323952 0.28645492 -0.28026643 -0.31444255 0.39857838 0.050557565 -0.25754377 -0.0105922 -0.13316678 -0.009253556 -0.055445313 -0.035887606 0.40048027 -0.081927255 0.035751387 -0.039291967 0.040889315 0.46158323 0.057563033 0.089959666 -0.30160955 -0.19022658 0.014919735 0.10201958 -0.13505897 -0.044049848 0.24825117
4001 0.14172462 -0.42434323 0.31528786 -0.33839542 -0.5289975 0.15717618 0.23922983 0.5063729 0.105128564 -0.10500245 0.47592357 -0.15728751 -0.08934742 -0.46069914 -0.26108232 -0.30369 0.46680075 0.46715438 -0.05295018 0.14175288 0.63586485 0.07100011 -0.008948365 -0.2422948 0.29028484 -0.03315053 -0.13762537 0.05153136 -0.01988715 -0.20679496 0.2639625 -0.34541008 -0.4706558 -0.6334884 -0.17445283 0.33033708 -0.02637998 0.41859826 -0.25992656 -0.0030534943 -0.17811441 0.44401395 -0.4351585 -0.29369235 0.10241483 0.4119238 -0.11587177 -0.14099596 -0.14793059 0.21699351 -0.07940812 0.206294 0.3200164 0.118536666 -0.53693765 0.17734356 0.28458524 -0.17041409 -0.24360062 0.3459983 0.23941082 -0.024931509 -0.7344692 -0.0048106774
2431 0.26608518 0.32816005 0.1887294 0.29278082 -0.047084667 -0.68420184 0.43859836 0.44078746 -0.019298369 0.20954734 0.23852135 -0.049158078 0.48468843 0.291177 -0.09978179 0.32780793 -0.16449282 0.108531445 -0.6736853 0.4546444 0.4088605 -0.081759386 -0.021401968 0.11190702 -0.08806711 -0.3854893 -0.39789116 0.6449754 0.043673772 -0.5998227 0.56459826 -0.3125471 -0.5425852 -0.6788918 -0.22891226 -0.40536916 0.13396859 -0.34936288 0.76789016 0.12551951 -0.04857326 0.5517576 -0.47804934 -0.0828803 0.21622182 -0.01542857 0.29995078 -0.09341879 -0.11638601 0.7482459 -0.04808988 0.64941055 -0.07709199 0.8002122 0.13894133 0.53722554 0.19468844 -0.041703112 0.7524414 -0.107014515 0.43533304 -0.5284386 0.42412394 0.08632773
4006 0.073679194 -0.17226431 -0.036096178 0.6094035 0.005153497 -0.061499726 0.33018267 0.4356421 -0.34507385 -0.003242054 0.17629425 -0.6161853 0.042236727 -0.18101645 0.13749707 0.3431349 -0.063169084 0.462223 -0.16061895 0.31195435 -0.15086384 0.454122 0.10345694 0.14997925 -0.19920929 0.5501999 -0.11766416 -0.010274149 -0.0016405483 0.33287218 0.19285429 0.6893541 0.14560112 -0.08590592 -0.35182557 -0.083767176 -0.08743354 0.29747325 -0.2025937 0.28041652 -0.13348036 0.46793038 -0.6451363 -0.6056253 -0.22981437 -0.04207765 -0.13747145 0.11208318 -0.19804575 0.13247223 0.56351185 -0.36309662 0.012216097 0.4117973 0.09430007 0.13761482 0.41567025 0.20249638 -0.24437612 -0.117979996 -0.32421115 -0.36141333 -0.3829967 0.074618116
3995 0.10328367 -0.14728892 0.20653576 0.1436728 0.031322796 0.064468265 0.36494833 0.73949057 -0.121684514 -0.7939802 -0.2757651 -0.18239596 -0.37076208 -0.4177567 0.108938985 0.14127722 0.3449819 -0.08072767 -0.17196308 0.2749117 -0.17330052 -0.09694591 0.21143757 -0.34716237 0.13915704 0.3201556 -0.6141068 0.1367805 0.02188453 -0.01840035 -0.33245552 -0.39973247 -0.08089567 -0.31304246 -0.1432103 0.23880266 0.38329527 0.4978745 0.49736133 0.44754317 0.57939297 -0.202748 -0.33630878 -0.09195367 -0.07285324 -0.517943 -0.21124944 -0.049748216 -0.22293435 -0.37313515 -0.4189249 -0.062075105 0.14748107 0.70723486 -0.27559403 0.37587354 0.23115657 -0.4098112 -0.024968421 -0.18393126 -0.034025464 -0.46642664 0.17598827 0.28697646
3989 -0.1976647 -0.09026266 0.31562608 0.45589027 0.45948383 -0.49212337 0.34001127 0.33211315 -0.13639869 -0.05573252 0.7792879 0.23619908 -0.005443847 0.1984504 0.4403426 -0.096506484 -0.12175201 0.3083047 -0.32786572 0.17528363 0.37419644 0.6119613 0.660397 -0.13734588 0.19368063 0.15510829 0.14519617 -0.11289893 0.3906791 0.35881948 -0.08315359 0.101392426 -0.21002269 0.08482023 0.088471234 -0.18977317 0.5174945 0.6372384 -0.14784463 0.22123362 0.0015138375 0.6760453 0.45576668 -0.061262816 0.5162208 0.0681813 -0.51463735 0.09817561 0.07244575 0.14862408 0.34313393 0.45906848 -0.036013693 0.31930804 -0.041598998 0.3803861 0.38715634 -0.3464928 -0.13693795 -0.2304779 0.048273098 -0.50054646 0.33782345 0.15830939
3951 0.258541 -0.72919255 0.67756814 -0.19505414 0.1612846 0.13739534 -0.22568461 0.3795343 0.44621822 0.033866122 0.21305482 -0.3248713 -0.17729747 -0.3545844 0.123981014 0.074058734 -0.18093769 0.32134962 0.060343105 -0.11643619 -0.3101317 0.34843498 0.13290513 -0.069619484 0.051251378 -0.1864224 -0.6739183 -0.4386465 0.2583359 -0.3816291 0.079294086 0.30723497 -0.53988135 -0.55863243 -0.17624553 0.19083606 -0.113513544 0.45087644 0.5350957 -0.29691416 0.33359915 0.37761092 -0.085023426 0.2996241 -0.15818185 -0.039029907 0.06796885 0.39062926 -0.18932989 0.26412898 -0.11285555 0.25636923 -0.33831847 0.01793064 0.034530163 0.30080092 0.7101199 0.09075899 -0.15615456 0.18969637 -0.33747602 -0.103614874 0.29188427 -0.03924168
3949 0.30790567 -0.6712627 -0.12789837 0.064783566 0.0601026 0.19647111 0.11002476 0.06876283 -0.064122476 -0.44204727 0.2178316 -0.22973876 0.47528237 0.04953055 0.15095435 0.21639207 0.23254074 -0.10162965 -0.31564367 0.6309799 -0.08299329 0.88480365 0.015271119 0.10379324 0.2621379 0.12248379 0.16903833 -0.2819389 -0.14811626 0.14242479 -0.11116778 -0.28094766 -0.43098092 -0.2989368 0.2558012 0.701996 0.48128214 0.41753963 0.6314704 -0.12228567 0.039767902 0.8006006 -0.002116637 0.39210138 0.5107841 -0.045346465 -0.1260858 -0.21696644 -0.052345257 0.40733847 -0.128669 -0.15170373 -0.118024014 0.1616848 0.021726372 -0.17764543 -0.15380418 -0.11026373 -0.28647614 0.33051112 -0.17666656 -0.13428044 -0.2038071 -0.16367571
3589 0.42180622 -0.3188059 0.13179271 -0.059774823 0.7673595 -0.631256 -0.15945348 0.0809153 0.08687648 -0.82574815 0.27942273 -0.26400483 0.6897897 -0.010894348 0.3729633 0.12693624 -0.13152947 0.15971445 0.05664654 -0.118264794 0.49103788 0.013177956 0.35368857 -0.21351579 0.23235996 0.084384255 -0.42101052 0.7936375 0.17016752 -0.93992627 -0.29322 0.11352263 -0.45009178 -0.23270316 -0.2371044 0.06603708 0.39169538 -0.09241406 0.025146844 0.4710158 -0.92872286 0.39244038 0.1336469 -0.39907783 -0.18218033 -0.32884824 0.2990513 -0.2659806 -0.74972266 -0.32497346 0.08574126 -0.23753636 -0.4191268 0.7408914 -0.3135154 -0.31149107 0.0008874927 -0.0062692924 0.0107017495 0.13981946 -0.47524294 0.065472245 -0.43232203 0.09933347
3959 0.026839714 -0.51222646 0.14205131 0.12375649 0.3817312 -0.17347154 0.6377024 -0.11071667 0.018620115 -0.051518254 0.049995087 -0.43587303 -0.0951559 0.21188316 -0.4887408 -0.20656842 0.084617466 -0.00094547553 -0.13630767 0.4850195 0.70392513 0.2707706 0.060333647 -0.37880495 -0.18797149 -0.013627114 -0.6556492 0.03522682 0.010345066 -0.4833383 -0.34356102 -0.3088057 -0.24818344 0.10649212 0.385438 0.06898648 0.22051299 0.7792049 -0.08678872 0.7817872 -0.08166223 -0.043606523 -0.068558924 0.26044896 -0.36807626 0.05572462 -0.07314136 -0.1458509 0.38009492 0.1039307 -0.46431413 -0.4868514 -0.052249122 0.2422255 -0.030046487 0.35748053 0.3517435 -0.02454338 -0.06289755 -0.55864745 -0.38963333 -0.2459686 -0.57203656 0.05089447
3950 0.16607198 -0.41678846 0.0028708975 0.39531085 -0.11850049 -0.033847477 -0.09488301 0.3654135 -0.14899638 0.059169114 -0.41133124 -0.043488957 0.05094633 0.14333886 0.09877893 0.08904628 -0.6173928 -0.08833463 -0.1082627 0.5488874 0.014409872 0.6622071 0.48804384 0.054956008 0.15086086 0.35289186 0.04299997 -0.42374328 0.3417672 -0.1765859 0.4370983 -0.09493185 -0.05952375 -1.0978861 -0.2093057 0.011482645 0.43705767 0.54423696 -0.2993762 -0.21660267 0.30954587 0.017094342 -0.09297754 0.15091793 -0.14471713 -0.08096321 -0.10322087 -0.09936983 0.11834812 0.43514577 0.25585216 -0.07931094 -0.04798222 0.42218882 0.21059059 -0.13796242 0.24291493 0.036622286 0.33696535 -0.32205087 -0.032505408 0.33782187 -0.27712485 0.57359797
3946 0.5159482 -0.24605235 0.013708989 -0.48368052 0.4496507 0.1256428 0.37114087 0.17948501 -0.30738398 -0.30081347 0.03328592 -0.6861327 0.441863 -0.04670982 0.25465712 0.033840984 -0.08167748 -0.34524962 0.041062895 0.5801492 0.2294196 0.33551627 0.27905566 -0.12930703 0.05291693 0.0678935 0.025119066 -0.5357027 0.23688571 0.31918368 -0.47772563 -0.15212497 -0.3735618 0.25856808 -0.14980707 0.41832042 -0.12456901 -0.048091065 0.12694651 0.18728243 0.20883755 0.6365636 -0.45847136 -0.13069959 -0.123765446 -0.15671873 -0.19196221 0.10664308 -0.3772926 0.074366964 0.10625931 0.10929006 -0.02378773 0.09032556 -0.02994437 0.25667033 0.44169003 -0.030289736 -0.21934363 0.11962468 0.21557273 -0.59955776 -0.72683203 -0.17564441
3970 0.19002004 -0.40116856 -0.17164591 0.054583095 0.52539325 -0.16654456 0.0050676404 0.22186571 -0.17804816 -0.57373214 -0.10662556 0.11317772 0.42006722 -0.19426972 0.5563627 0.03640957 -0.29045898 -0.2178837 -0.008981703 -0.3859661 0.66917324 0.49070364 0.28403878 0.2320423 -0.018263694 0.36961144 -0.2353185 0.39206204 0.12439977 -0.72999036 -0.06013901 0.37328446 0.04602267 -0.36263677 -0.11010805 0.5694742 0.13975546 0.29324457 0.34115446 0.24973713 -0.36272195 0.2771358 -0.028082706 -0.39376825 -0.08212512 -0.33172542 -0.013194024 0.30561838 -0.721009 -0.120596066 0.060296718 -0.0117995925 -0.08124572 0.53198284 0.11420829 0.047775913 0.24908192 -0.10719281 0.32084817 0.13073024 -0.118688464 0.29723993 -0.16204304 0.25053087
3975 -0.060435325 0.44159877 -0.023175059 0.4068374 0.21710786 -0.5120181 -0.055154223 0.4325438 -0.05578737 0.07060397 0.33026862 0.44251484 0.09618492 -0.06855351 0.09222159 0.1321795 -0.14854515 -0.22214077 -0.014254014 0.48078805 0.4077548 0.12659761 0.45268705 -0.13677925 0.354317 0.37772065 0.1492618 0.14399476 0.24878481 0.5822225 -0.07475496 0.11850432 -0.343061 -0.56969213 0.10482933 -0.13446927 0.941754 0.70533454 -0.051210724 -0.026310202 -0.1776046 0.6097932 0.17005959 -0.0380705 -0.008719012 0.03581892 -0.49231106 0.099488266 0.047685917 0.09642173 0.232406 0.21158785 -0.44351596 0.19304937 -0.32118526 1.0090066 0.28862423 -0.33773533 0.11022137 0.0011512607 0.09338948 -0.30611292 -0.30332175 -0.17567986
4015 0.38007995 -0.28622708 -0.37254676 0.16527475 -0.0965914 -0.5695795 0.7022536 0.71754545 -0.053198952 -0.08227063 0.13962962 -0.52017754 0.14969695 -0.2148535 0.25275943 0.08648115 -0.24202368 -0.08623346 -0.20810726 0.1650648 0.07078093 0.5139228 0.30801547 -0.6344493 0.21087065 0.5177246 -0.049374074 0.14652425 0.13561964 0.0023839031 0.52511317 0.16917364 -0.3743107 -0.004306054 0.52572894 0.7236681 0.3479948 0.017016962 0.33693162 0.19510496 0.17764017 0.7757726 0.17047949 -0.251617 -0.15753265 0.37296063 0.2247804 0.018157152 0.32598606 0.66675407 0.316589 -0.1000638 -0.071388274 -0.059444565 -0.057713684 -0.24266556 0.43082532 -0.28343016 0.12926279 0.027546754 0.032122206 -0.032486323 0.12031509 0.015213036
2337 0.12005898 -1.262974 -0.1244484 -0.28230694 0.13835399 -0.10507783 -0.02164297 0.74773836 0.08070241 -0.6520247 0.008589147 -0.24755639 0.6133566 -0.24974775 0.09696302 0.50462127 -0.14929749 0.20716709 -0.16150118 -0.22824137 0.42443997 0.15820062 0.6931902 -0.12624535 0.250032 -0.5353262 0.1741656 0.8182722 -0.38823774 0.003817266 0.4324227 0.108655885 0.036466878 -0.120205045 0.18244632 -0.38683656 0.4765719 -0.110294186 0.18758573 0.07706525 0.5250726 -0.14455834 0.09185147 -0.13546564 -0.1394063 0.058586046 0.04219971 0.049495514 0.23062624 0.3915304 0.48041514 -0.2781473 0.33265516 0.44385782 0.2666355 0.5350782 0.008152851 -0.2939548 0.7989211 0.03734411 0.009921123 -0.3070864 -0.70376295 -0.22840296
3956 0.16920696 -1.0904222 0.16276701 -0.08142086 0.016578116 -0.25725558 0.3517561 0.8817585 -0.036943916 -0.23966534 0.015529555 -0.49133885 0.32762748 -0.28297636 0.3489575 -0.15270232 -0.31649724 -0.24512415 -0.2898814 -0.20965251 0.20222168 0.49141857 0.20394781 -0.5093905 0.26829696 0.39259103 0.2103825 0.29830906 0.0990795 0.06371111 0.41071156 0.004095465 0.0509134 -0.18081664 0.5141268 -0.061413225 0.6389475 -0.32778415 0.04277075 -0.059396923 0.47749892 0.049722657 0.086190745 -0.20566057 -0.10774116 -0.13242021 0.4330287 0.17522873 0.1713914 -0.030117668 0.21384057 0.11019252 0.15510814 -0.038907092 0.16519006 0.47517294 0.2704076 -0.1804691 0.4242434 0.15357085 -0.06041364 -0.059493884 0.051226646 0.01360174
3991 0.16928622 -0.16138469 0.32406685 -0.119846284 0.34612706 -0.33380744 -0.10757973 0.50828475 0.06195304 -0.22195652 0.6212724 0.012772138 0.11374059 -0.17088123 -0.117902756 0.27408126 -0.25272304 0.24352926 0.3852774 0.4241642 0.34420556 -0.015653074 0.21525514 0.16842848 -0.30734006 0.03946424 0.28217566 -0.24287805 -0.13989092 -0.3248135 0.20733856 0.2965323 -0.61339223 -0.10238515 0.4403856 0.14726949 0.60683256 0.6433412 -0.12178326 -0.20164296 -0.27154267 0.36601514 -0.122808754 0.38814914 -0.9523938 -0.20308977 0.2693868 -0.15039164 0.5859819 0.09372674 -0.025840374 -0.0036801596 -0.2500234 0.37587038 0.6145563 -0.19959378 0.42885616 0.28261375 -0.35731724 0.22509703 -0.138899 -0.14055505 -0.34281853 0.26461837
3960 0.41227257 -0.27254257 -0.062058773 0.24178618 0.109252304 -0.3571177 0.05978084 0.31791258 -0.13460928 0.07582538 -0.20761402 0.0752183 0.0011039906 0.2989103 0.07634807 0.0665104 -0.4474157 -0.018727032 -0.010956433 0.5215033 0.26278803 0.41932422 0.24491283 0.011206088 0.046126347 0.5080726 0.025561491 -0.19076782 0.018862177 -0.5815581 0.51168054 0.10195278 -0.15444605 -0.8859685 -0.44121188 0.14048818 0.5534804 0.6303806 -0.19598465 -0.08728791 0.45601222 0.08246875 -0.23137406 0.19611377 -0.13310954 0.1987816 -0.36066645 -0.39216143 -0.0643053 0.30354354 0.5983858 -0.09366337 -0.052114382 0.3427902 0.1295309 -0.40586224 0.15290327 0.00095403433 0.53232163 -0.3073895 -0.1063646 0.44303808 -0.023763321 0.29799753
3966 -0.09608378 -0.16318092 0.08429861 -0.27781197 -0.10938173 -0.20371136 0.22058506 0.1958676 -0.0914499 -0.28523234 0.2902284 -0.44972005 0.063723445 -0.6841943 -0.29185176 -0.12114836 -0.114627704 0.39608318 0.014285781 0.18600336 0.16324449 0.38515168 0.21865053 0.17645577 0.6475591 0.5675813 -0.23123938 -0.31978476 -0.27320984 -0.16676614 -0.30839083 -0.040986028 -0.44761288 -0.61988693 0.10669645 0.17613026 0.47822675 0.13291407 0.58637327 0.04452331 -0.41322806 -0.03618528 0.15516807 -0.035030004 0.3011254 -0.38188908 -0.15021102 0.022837149 0.13457446 0.22716795 0.40372214 0.0031688174 0.53769225 0.101065256 0.49533498 -0.44042414 -0.21511982 -0.39692277 -0.015949627 -0.1887836 0.27994296 -0.3471675 0.07049618 -0.28215247
3986 0.16765371 0.13550253 0.73289555 0.31167367 -0.38084477 -0.17979787 0.24633253 0.5554829 -0.59105724 0.3568899 -0.1361255 -0.0028904292 0.44641182 0.04364778 0.044041753 0.2017082 -0.3603738 0.5686548 -0.30315852 0.2014138 0.24248533 0.6345352 -0.08918998 0.17016281 0.23524614 0.3582192 -0.15430056 0.42205098 0.52777606 -0.40094653 -0.41678298 0.05167856 -0.42904052 -0.14393878 -0.028493231 0.16605519 0.4583788 0.018623574 -0.066389196 -0.10513445 0.08472291 0.061122436 0.030063957 -0.143359 -0.2200874 0.21249951 0.14558505 -0.41385978 0.29532945 -0.13019429 0.6884594 -0.33457455 0.18065292 0.42866126 -0.29124588 0.21285808 0.22816297 0.054666806 -0.26186004 -0.4882904 0.27820134 0.012847896 0.08986283 -0.26987562
3998 0.38404676 -0.39913037 0.49983516 0.3082179 0.19570972 0.0841861 0.0026858493 0.6930541 -0.19435878 -0.089187965 0.46560904 -0.09169232 0.034555066 0.22448927 -0.18968529 -0.012125628 0.09135312 0.6235799 -0.666288 0.16975158 -0.31216443 0.09062591 -0.13045773 -0.05946992 0.00052368257 -0.10907963 -0.20067888 0.4371245 -0.87373054 -0.029956745 -0.05816829 0.3654497 0.1366585 -0.21952765 -0.20459762 -0.13514118 0.30920705 0.94831216 -0.121430255 0.2722882 -0.34754047 0.050137937 -0.526605 -0.079850964 0.41577566 0.039338585 0.04253525 0.11164321 0.09892671 0.5102802 0.034125097 -0.19535449 0.25281113 0.2578779 -0.44796845 -0.22386572 0.20701122 0.2615163 0.15519202 0.06656886 -0.2886982 -0.19974767 -0.08927348 0.16473182
4013 0.40655452 0.0011182865 0.020900281 0.009692951 0.041790213 -0.62655455 0.25403085 0.8711469 -0.68686557 0.22183473 0.47226042 -0.41572076 0.46501443 0.34552616 0.12414596 0.16606058 -0.34014037 -0.2080633 -0.28840098 0.1601489 0.23525043 0.31534111 0.2358737 0.24418552 0.02070031 0.19989209 0.15023197 0.2574257 0.101982355 -0.0794128 -0.3244991 0.15787135 0.06641564 0.0087968735 0.32761493 0.3865344 0.016690034 -0.16764197 -0.27517366 0.103903994 -0.03691145 0.2874342 -0.08878795 0.51375103 -0.42632273 0.36736557 -0.18009268 0.30318758 0.14876641 0.31385937 0.206755 -0.48873433 -0.04888808 -0.15653156 0.1251214 -0.32647416 0.25480697 0.11290893 0.35635555 0.28368396 -0.047859102 -0.48291773 0.091850415 -0.04405889
3981 0.041236386 -1.064657 0.5532793 -0.496872 0.35331586 0.2590518 0.17518269 0.27171677 -0.1324956 0.09894587 -0.043547403 -0.045887213 0.04982059 -0.20148437 0.07290779 0.5388307 0.10258448 -0.24310581 -0.21450135 -0.01904608 0.4982532 0.20915385 0.12288221 -0.7535005 0.21638632 -0.3052665 -0.17968006 0.27991456 0.25353366 -0.032296356 0.035698604 -0.04764899 -0.11274778 -0.119803146 -0.115664594 -0.18608871 0.72931415 -0.17497142 0.103830725 0.21029577 0.34326813 -0.31173962 -0.120987594 0.14074755 0.06564725 -0.3126896 0.012883351 -0.022532493 -0.030081386 0.18005082 0.25245214 -0.35485834 -0.07668153 0.31383404 -0.10307805 0.0076547335 0.27155116 -0.24229692 0.38215813 -0.031351514 0.1303721 -0.38988414 -0.5820153 -0.23025037
4011 0.08723761 -0.3173927 0.2802551 -0.036660478 0.7862075 -0.15397342 0.44392243 0.43510783 -0.09213462 -0.13513893 0.16772401 -0.16872936 0.07379411 0.13562119 -0.33286315 -0.123091064 0.10474816 -0.23200974 -0.044739075 0.5308702 0.35843775 -0.32159713 0.57332194 0.4490986 -0.09196672 -0.11402929 0.3146298 -0.11080198 0.15759481 -0.0055098827 -0.64611906 0.44146878 -0.28510076 -0.5422621 -0.22712782 0.19879803 0.16272739 0.31889337 -0.43186417 -0.18031079 -0.34630176 -0.10278611 0.046676397 0.31157467 0.1694645 -0.04636116 -0.009265573 0.027998393 0.17438284 0.36516124 -0.43892875 0.515171 0.76971966 0.045431606 0.058036122 -0.3753413 0.45215374 -0.6240465 0.31368178 -0.018947765 -0.10763773 -0.052046258 -0.1800944 -0.06787304
4016 -0.03797695 -0.22723222 0.66353846 0.01161758 0.22013839 0.11501805 -0.21410556 0.36327705 -0.23421313 0.033885986 -0.2739617 -0.5251939 0.13901688 -0.26836234 -0.39276022 -0.7606564 -0.29128477 -0.16076605 0.13662344 0.14470926 0.7895093 0.096101105 0.088902496 -0.55530286 0.7261941 -0.016403608 -0.09726 0.06794924 -0.32478058 -0.02338926 0.06099504 0.0431769 -0.67862177 -0.23704539 0.48160297 -0.40145642 0.076914094 0.46744066 -0.096523374 -0.13631003 -0.2306753 -0.12930267 -0.065157026 0.07614854 -0.0025147183 0.061416205 -0.49260914 -0.00083300564 0.05799338 0.21353108 0.10460445 -0.055927098 -0.027478881 0.7332089 0.101954974 -0.27902496 0.10501355 -0.32411855 0.019181795 0.22004826 0.06664574 -0.46897903 0.14074995 0.060423702
3947 -0.03191979 0.14807414 0.15117155 -0.15596204 0.16133007 -0.10663902 0.30685812 0.3928299 -0.35345915 0.37367842 0.2717852 -0.15248434 -0.17862882 -0.05101349 -0.13879348 0.46629068 -0.1833639 -0.046721127 -0.44451573 0.39168411 0.16950978 0.13761443 0.26884782 0.26927832 -0.07669668 0.19722895 -0.24346966 0.6126939 0.11911808 0.011640808 0.38895813 0.026886644 -0.47690898 -0.6985452 0.729895 0.08507931 0.0718054 -0.14175764 0.78893334 -0.0030360501 -0.11776302 0.07532317 -0.12865017 0.31388482 -0.069437094 -0.021081474 0.2861665 -0.1044152 -0.31844318 0.3716203 0.139483 0.25165686 0.08992196 0.7878042 0.36470053 0.17180294 0.5870837 0.034155447 0.3808265 -0.0795099 0.15768626 -0.056719407 -0.079155974 -0.03779316
4008 -0.2789577 -0.101723805 -0.045675054 -0.12127818 -0.19401337 0.2598571 0.46039656 0.23177364 0.06575885 -0.12084695 0.07616903 -0.27162093 0.27605736 -0.39725316 -0.23380128 0.36137143 0.18473077 0.35800064 -0.4005528 -0.06174175 0.40934286 -0.3040116 0.4268695 0.48705465 0.2513961 -0.10692104 -0.21183738 0.054126155 -0.4589304 -0.22126718 -0.1685341 0.23249748 -0.77493954 -0.31462985 -0.039043743 0.46817362 0.5316787 0.44472164 0.14166714 0.07993801 -0.2664403 0.28906992 0.05033167 -0.020517275 0.45550245 -0.2512463 -0.11021615 -0.2006416 0.32864055 0.15643609 -0.2287902 -0.5760095 -0.15467148 0.47577012 0.3459496 -0.52317023 0.40193936 0.32169008 -0.05413897 -0.119881496 0.13792598 -0.44549206 -0.04763804 -0.28759766
3953 0.074425794 -0.34258747 0.5416675 0.31371537 0.016255578 0.05581595 0.12504053 0.5222846 0.124805436 -0.24199732 -0.07532263 -0.2485958 0.29487273 -0.64114875 0.48209023 0.21031322 -0.21400063 0.29665816 -0.09354456 0.2519893 0.1662929 -0.44785506 0.2347678 -0.07036769 0.051234998 0.24609347 -0.20794582 0.09758899 -0.34735277 0.25575 -0.2460888 0.124501795 -0.2418077 0.0063906796 0.4642164 0.59912103 0.44854957 0.41280928 0.50211567 0.2273571 0.3270027 0.1465036 -0.77918583 -0.10809588 -0.17994174 -0.5190166 -0.43419135 -0.10578044 0.23893802 0.26262122 -0.10258322 0.20482388 -0.051586326 0.3326356 -0.5238101 0.15389852 -0.029757757 -0.11534234 -0.15987945 0.17824972 -0.11190848 0.25434026 0.3093466 -0.034021832
3952 -0.094639555 -0.30683205 0.084610105 -0.053387742 0.117149025 -0.24025397 0.23440024 0.57143885 -0.19729441 0.2574741 0.46354303 -0.53312135 0.46352914 -0.2604536 0.111210585 -0.17643115 -0.04668357 0.65266883 -0.018253809 -0.10498775 0.019951543 0.033368483 0.12628494 0.57762563 0.24711624 0.5749479 -0.55144143 -0.19316274 -0.38557032 0.05967962 -0.21645121 -0.109555595 -0.3739933 -0.2407815 0.11260252 0.48690772 0.5977413 0.29773146 -0.09610265 -0.030532876 -0.047220636 -0.0014432688 -0.0056951107 0.18389627 0.42090282 0.1713391 0.15734877 0.08265475 0.031278815 0.14117362 -0.40728247 -0.2377988 -0.0997203 0.4679575 0.7227866 0.30208117 0.11279484 -0.34229913 0.294843 -0.3210888 0.63576657 -0.2694489 -0.3397784 0.19599143
3961 -0.5926019 -0.4477819 -0.041105404 -0.12001229 -0.3205722 0.0056104516 -0.08820019 0.60366786 -0.120691404 0.3814698 0.10074422 -0.28998145 0.45714283 -0.07475122 0.20907779 0.043961626 0.5830397 0.1408017 -0.08914376 -0.11798537 0.52462214 -0.018335985 0.070341766 0.050462503 0.46798488 0.4700015 -0.2555714 0.01831855 -0.24190229 -0.2026802 -0.5577077 0.35179016 -0.61359257 -0.35679147 -0.50152516 0.36340338 -0.0022618526 0.06658367 0.3047141 -0.0018793903 0.43949318 0.15051427 -0.09366589 -0.18191774 0.0020948711 -0.2715974 -0.25645235 0.030406648 -0.12473224 0.12101134 0.11054218 -0.09744566 -0.30245075 0.24937382 0.89603156 0.20455249 0.3188948 0.07821204 -0.25098053 -0.19783056 -0.0039410065 0.08275175 0.11817947 -0.01515089
3958 0.3070669 -1.0489835 0.08388386 -0.2737298 -0.06995631 -0.09446566 0.060833782 0.7790767 -0.17286578 0.22905411 -0.041752532 -0.060090654 0.2109712 -0.5671835 -0.08334521 0.22889562 0.079670995 -0.39148146 -0.04742651 -0.126839 0.26652488 0.20290315 0.43594718 0.20722567 -0.029090729 -0.40424982 0.7998004 0.3140793 -0.16120413 0.3491183 0.051370066 -0.024210772 -0.21854965 -0.20563129 -0.12149637 -0.18964234 0.3365174 0.022003757 0.20191649 0.010173246 -0.06873879 -0.19030708 -0.18634118 -0.23455347 -0.4153679 -0.09079419 -0.06138856 0.10297809 0.1404527 0.14428663 0.40174988 -0.3918501 -0.09677919 0.5333981 0.16901582 0.53646755 0.38906884 0.011645063 0.23161629 -0.07567867 -0.17396462 -0.08928632 -0.086891405 -0.24432431
3983 0.18617348 0.07737954 -0.15208963 0.13982305 0.06632358 0.002121683 0.293584 0.47987935 0.11482149 -0.07480809 -0.17016678 -0.534623 0.12138325 0.47487682 0.6810313 -0.061101977 -0.5513419 0.20719716 -0.5747487 0.121765114 0.33280423 -0.341566 0.44561824 -0.28182188 0.23116179 0.34645322 -0.011606043 -0.34898752 0.17256147 -0.5061451 -0.3975546 0.1672087 -0.20686512 -0.3607066 -0.15895237 0.21642834 0.16746196 -0.036005914 0.06843248 0.10596937 0.31932086 0.09611081 0.19907033 0.4307357 -0.18049794 -0.3321893 -0.22492361 -0.09865501 0.44519565 0.6041615 0.31384698 0.21451984 0.09303437 0.32716876 -0.0015400805 -0.19861926 0.6047285 -0.025645215 0.17739695 0.23078948 0.06263375 0.015712013 -0.41277668 0.48133972
3978 0.058328126 -0.9882986 0.11862552 -0.12262891 0.304452 0.18799844 0.11610379 0.35006067 0.19331272 -0.24398708 -0.22542822 0.096989475 0.18145487 -0.4784322 0.2294648 0.48689657 -0.23030366 0.31107956 -0.15441306 -0.2556822 0.660882 0.30967727 0.59214675 0.11375113 0.015942112 0.13604037 0.33611107 0.7822002 0.19995926 -0.26205423 0.043066364 0.2390754 -0.22828808 -0.2787807 0.024167512 0.28002977 0.6807589 0.20224842 0.48440954 -0.09317997 0.5079884 -0.010717862 0.004463163 0.020970667 -0.37227172 0.2601333 0.17161569 0.40739313 -0.021271778 0.4331813 0.34394458 -0.26337382 0.36548734 0.12109039 0.4802804 0.106999345 0.034941576 0.13074288 0.27832532 -0.02650907 0.28568742 -0.48669827 0.043591797 0.31576535
166 -0.23559465 -0.10413742 0.21466872 -0.42099282 0.006666679 -0.26740304 0.6047397 0.09663857 0.10662281 0.019451816 0.6011945 0.038769435 0.47622278 0.49384803 0.084760204 0.12767114 0.16570905 -0.32291058 -0.67034346 0.23974144 0.10187976 0.10846256 0.078029394 0.08471538 0.0099552525 0.44758135 -0.22118868 0.85751164 -0.2973612 0.014652997 0.802626 -0.34549835 -0.39337733 -0.49099532 0.5269179 -0.028451523 0.20226128 0.10600861 0.5351392 -0.15728502 0.07579467 -0.007987158 -0.4471315 0.42817995 -0.41084626 -0.15035778 0.07594074 0.051563907 -0.5351341 0.62750316 0.10565986 0.6322321 0.090509035 0.85578626 0.6226228 -0.10982707 0.7177097 -0.50023854 -0.44990838 -0.42449418 -0.30748156 -0.55087197 -0.7018816 -0.08112779
3967 0.07595104 -0.36658677 0.021983106 0.22072402 -0.0730983 0.15560316 -0.19958356 0.022704057 -0.041284747 0.123531014 0.17896768 0.13523172 0.7564423 -0.26044804 0.056902517 -0.26843828 -0.47752318 0.15274572 0.01865841 0.450465 0.29129514 0.1294929 0.51109797 -0.46062028 -0.19061686 0.757182 -0.08935469 0.36247993 0.30235192 -0.25434974 0.079439715 0.4681833 -0.20608777 -0.056980845 -0.18897407 0.17571406 0.1346199 -0.35889068 -0.10942517 -0.013419649 -0.18892176 0.5000662 -0.4504022 0.2525813 -0.0041305297 -0.38539684 -0.10804481 0.14762421 0.085049376 0.14597224 0.082166806 -0.20092513 -0.18902124 0.25818056 0.34166026 0.38717008 0.43322942 -0.30095267 0.051678658 -0.95863813 -0.07200967 -0.11301373 0.15088353 -0.49661374
3994 -0.11982547 0.18628632 0.22545318 -0.57021594 0.33526826 0.13618825 -0.41458347 0.2488191 -0.054579943 -0.5054841 0.38305557 -0.30922687 0.48666066 0.04921971 0.09290582 0.42565915 -0.2985405 0.26934558 -0.2928514 -0.14318714 0.099807605 0.26805097 0.5288091 -0.15268917 0.36972493 0.18958712 -0.080913045 0.4696011 0.2983864 -0.53201437 0.15881132 -0.21610747 -0.15116926 -0.14804552 -0.25683886 -0.010509527 0.40555337 0.3539882 0.42138425 0.115928024 -0.35858274 0.5875328 -0.116381995 -0.05738503 -0.086025 -0.64867383 0.026471099 0.21465518 -0.29439753 -0.25685325 0.008237822 0.050888665 -0.03527748 0.42391127 -0.33238053 -0.46478134 0.11725726 -0.13743034 -0.1676108 0.15757315 -0.27847406 0.07539223 -0.48319423 0.112054855
4014 0.30265036 -0.14785635 -0.24646258 -0.07156506 0.748845 -0.18824443 -0.58155096 0.37719482 0.009095335 -0.38869384 0.52218646 -0.41232187 0.029478326 -0.10468727 0.54991925 0.074942805 -0.2754561 0.18544313 -0.099661134 0.19138601 0.07827959 -0.1694624 -0.07887275 0.3291674 0.56869835 0.4575514 -0.13967523 0.42913544 0.3189523 -0.17798758 -0.3639614 0.124641284 0.00274279 -0.5623743 -0.06069474 0.08831956 0.72923565 0.23917377 -0.0730913 0.23196791 -0.30694675 0.48444262 0.074665114 -0.3256275 0.117761955 -0.19767034 0.25018272 -0.12178061 -0.42876944 -0.18794604 0.13809562 -0.22333221 -0.07441318 0.73053515 -0.2938538 -0.32012117 0.49788183 0.038264807 -0.18292196 0.31043872 -0.033068985 -0.14167295 -0.059863403 0.0695256
4000 0.5256304 -0.63082665 0.31046918 -0.25270307 0.17937176 0.00022836872 0.097769424 -0.0081340745 -0.28326952 -0.39547855 0.3539477 -0.28189826 0.34366617 -0.2533225 -0.110713795 0.4551832 0.26684153 0.1661677 -0.3024245 0.4983285 0.14715947 -0.08914605 0.30002204 -0.3275169 -0.46660408 0.32054994 0.10407624 -0.035257235 0.48183477 -0.500841 -0.11948086 0.13723561 -0.021642022 -0.1881638 0.16565587 -0.033310756 0.21211283 0.6750632 -0.23639457 -0.009319562 0.3341379 0.13980879 -0.114005975 -0.02177941 0.37419203 0.007085365 0.4285885 0.3358224 0.58108974 -0.6428446 -0.40959886 -0.11329414 -0.43367773 0.45252705 0.12858777 -0.2862681 -0.0049582645 -0.5001326 0.013838661 -0.19971596 0.25326103 -0.59169203 -0.22506404 -0.12946144
3955 -0.05611226 -0.62624854 0.0812345 -0.16384181 -0.39566725 0.6691032 -0.1630729 0.21706966 -0.3958293 -0.056085095 0.4582358 -0.3719918 -0.10591634 -0.1414303 0.092398494 -0.08932037 0.12765253 0.44939268 -0.45049575 0.5884708 -0.011799032 -0.04949504 0.48580015 0.1808456 -0.5986522 0.35617673 0.008570321 0.044408448 0.052421313 -0.10817921 -0.25582206 0.13303463 0.13924752 -0.3770844 0.10191922 0.62194794 0.3714427 -0.14465061 0.11539386 0.19248612 -0.09737222 0.33137426 0.22048932 0.021298574 -0.18945967 0.21270771 -0.02615881 0.25400472 -0.37272137 0.25765237 0.46195954 -0.19356969 -0.16999654 0.6205371 0.13240361 0.05281978 0.088069394 -0.69675815 0.09214623 -0.19645149 -0.041100692 -0.28799742 0.29693818 0.066465296
3957 0.23727237 -0.13721275 0.020074956 0.0571165 -0.03367408 0.15278761 0.15579812 0.0882779 -0.76813173 0.11962615 0.026394375 -0.12812622 0.35568768 -0.17997245 0.1630951 0.44533366 -0.23935801 0.30749768 -0.33212832 0.122774445 0.39888388 -0.052082576 0.22865817 0.11592359 0.7845055 0.12864487 0.09921497 -0.49161962 0.13541675 -0.2961095 0.2126639 0.1800796 0.056979224 -0.49369937 -0.15749407 0.1530731 0.51906884 0.12406086 0.43204755 0.04637449 0.023765566 0.0035188124 -0.3927619 0.33996648 -0.24773599 0.11062212 -0.47546917 0.37583557 0.38104206 0.30958116 -0.045594115 -0.22522777 0.055205047 0.034509376 0.03461 0.27972206 0.23805602 -0.25827387 0.059569165 -0.29577786 -0.19108588 0.46152958 -0.6044131 0.4366788
4009 0.044622045 -0.09515677 -0.22339691 -0.33716607 -0.47979385 -0.19384547 -0.49865007 0.6597529 -0.38618505 -0.22810857 0.19727622 -0.56960094 -0.12929578 0.12309923 -0.019935893 0.025880147 -0.64923406 0.0028276616 -0.40815187 0.54586935 0.21887124 -0.05629434 0.28626946 0.18283123 -0.074391864 -0.26432213 -0.36341503 -0.33802122 -0.24355236 -0.15192382 -0.009092982 0.27426842 -0.1256741 -0.09489486 -0.36202157 0.091610156 0.49879128 0.60605204 0.51079434 0.07817622 -0.0009624335 0.2491597 0.2087427 -0.33650327 -0.0023620916 -0.18131179 0.25947455 -0.5872723 0.061792374 -0.07261592 0.07372875 0.32889208 -0.26836133 -0.041906197 -0.083140016 0.43009457 0.47720426 -0.664085 0.13452624 0.091601945 -0.24267167 0.074044906 -0.2897201 -0.20884034
3972 -0.22186798 -0.5968056 -0.11266542 0.39834568 -0.027830023 -0.050134312 0.17681675 0.8050412 -0.05725492 -0.05161642 0.24137838 -0.666113 0.5926821 -0.03906767 -0.16721575 0.17876533 -0.019859547 -0.14279504 0.09235809 0.09433845 0.15717137 0.17162262 0.05922402 -0.08018644 0.10773326 0.18480925 -0.22403152 -0.08187477 -0.20178443 -0.25341564 -0.39274243 0.13228405 -0.414941 -0.048337366 0.17928872 -0.029968128 0.16210243 0.8546946 0.57769567 -0.027993683 -0.17551918 -0.23331158 -0.2888935 0.2498937 0.63831615 -0.03180983 -0.076260425 0.14384417 -0.2702236 0.264135 0.14744154 -0.091507025 -0.37509084 0.1747199 0.47379926 -0.57877874 0.41393057 -0.17357634 0.08825484 -0.32990783 0.051869154 0.0023693575 0.3199067 -0.13203716
3992 0.42630187 -0.23848312 0.32843736 -0.109225206 -0.027303912 0.015259947 -0.010533777 0.8296658 -0.023226596 0.5623763 0.26116386 0.13768202 -0.20755106 -0.37511304 0.46119305 -0.6125227 -0.13630234 0.15014939 -0.20170699 0.13360645 0.28354192 0.18565653 0.40567604 0.4158086 0.029595286 0.032838017 -0.14381394 0.18762015 0.23791574 -0.39671466 0.18155268 -0.2358946 -0.48522076 -0.27863693 0.26218724 -0.09487593 0.54961014 -0.07071467 0.07807252 -0.14562047 0.089733005 0.3504615 0.23705584 0.21315572 -0.11025617 -0.52739775 -0.27868706 -0.2230273 -0.33699912 0.009094554 -0.46812004 -0.5670333 -0.056187008 -0.015654454 -0.32866973 -0.22983181 -0.10788767 -0.24902974 0.029783417 0.25678512 -0.28117058 -0.3843403 -0.33811674 0.16518448
3969 0.3179748 -0.11540294 0.23638365 0.1850599 -0.27645123 -0.30123115 0.67503947 0.03873267 -0.33736655 0.121309586 0.116685085 0.24022044 0.3036094 0.079525046 0.4284463 -0.046282195 0.14203897 0.13539195 -0.2526218 0.105034545 -0.04956778 0.23779559 0.38306543 -0.46874148 0.20838086 0.25280148 -0.40368712 -0.22421722 0.004805359 -0.24430917 -0.05000975 0.86465603 0.4496629 -0.7026061 -0.2537184 0.0006167036 0.6415703 -0.04102128 0.058822908 -0.20870514 -0.16062282 0.19736631 -0.024329554 -0.015489615 -0.5457459 -0.58711636 -0.19233496 -0.28441507 0.24434243 0.53844035 0.40647736 -0.05932669 0.11768694 0.013419666 0.26774672 -0.07189789 0.21921182 -0.20324607 0.19152775 0.092969164 -0.11093918 -0.13022818 -0.26502588 0.31277993
3976 0.4477201 -0.05493838 0.35737103 0.15366134 0.30831453 -0.4487579 0.20195873 0.5153134 -0.64890647 0.05377009 -0.08921782 -0.16233496 -0.5677509 -0.33630937 -0.20105553 0.43301514 0.34549284 0.39506817 -0.16369992 -0.046994552 0.05599185 -0.04002169 0.2985844 0.18600184 0.14064874 -0.058886502 0.07040912 0.13183817 0.29809877 -0.7049858 0.030023243 0.30138668 -0.2156025 -0.20457947 0.11225812 0.24653251 0.10308589 -0.30962506 -0.09291892 -0.10568834 0.27165353 0.3977604 -0.12540369 0.18790877 -0.16834706 -0.20265216 -0.12748805 0.16609855 -0.29077652 -0.010399613 0.29210997 0.18867543 -0.0030369922 0.12339924 0.20684116 -0.3232454 0.47689232 -0.83897775 0.31455135 -0.5673031 0.0049583977 0.0868603 -0.34899667 -0.01752009
3965 0.1575104 -0.2888209 0.11136837 -0.19643895 0.38721824 -0.06604902 0.19801009 0.378836 -0.36530733 0.3444572 0.5201363 -0.31552988 0.3156879 -0.552411 0.43445086 -0.15286863 -0.041343085 0.08539471 -0.42530027 0.36351678 -0.09300096 0.045917157 0.0820633 -0.3417614 0.06419107 0.29712734 -0.034083877 -0.25684026 0.29299647 -0.40719888 0.03521864 0.3872097 0.006800278 -0.20781511 -0.12881301 -0.07270082 0.3301861 0.12492735 -0.043702688 -0.23993532 0.16306487 0.24222127 0.3210528 -0.030385867 -0.34639543 0.02221494 -0.10907338 0.46951726 0.41833565 0.2269071 -0.26451033 -0.40386188 0.2628173 0.94150764 -0.5044165 0.08535833 0.1251524 -0.39134923 0.06434134 -0.40521455 -0.38853592 0.18573213 0.6037391 -0.39400223
3982 -0.23507068 -0.658296 -0.15655662 0.050826423 -0.30839676 0.074004844 -0.54631895 0.36724922 0.27721146 0.21522133 0.40456477 -0.3264459 0.3943841 -0.2735608 0.3819992 -0.2901796 0.25578532 -0.062396005 -0.54500526 0.6524616 0.2825016 -0.013783871 0.34055284 -0.18723379 -0.3250309 0.17329682 0.075400464 -0.12293695 -0.04693213 -0.27634266 -0.003867183 -0.15164492 -0.027981535 -0.3311411 -0.008417866 -0.04358653 0.021486435 0.42721134 -0.31134427 0.020614773 0.21809909 0.25357348 0.18396923 -0.28356773 -0.29652753 -0.16755094 -0.2936268 0.911641 -0.12614337 -0.012916059 0.053170774 0.16482297 -0.03517181 0.7739836 0.2246108 -0.32659572 0.21198574 -0.2879275 0.15661587 -0.09056335 0.15478525 0.24380593 -0.07694858 -0.20629506
3962 -0.065536216 -0.20529565 0.09443637 0.20964661 0.24469441 -0.08354787 -0.06847261 0.5671749 0.18517698 0.438689 0.27534285 -0.043500982 0.111843996 -0.45732316 -0.0104976 -0.39342335 -0.44725862 0.33535403 0.050469827 0.4335234 0.31832826 0.30078384 0.33140156 0.32886526 -0.24509461 0.07720063 -0.1208202 0.14936192 0.37761465 -0.23328424 0.158934 0.1276458 -0.46047714 -0.25482923 0.094667934 -0.4003082 0.6429216 0.36792552 0.2820483 -0.13643695 0.30326283 -0.009109834 -0.48367214 0.24262826 -0.15735535 -0.63443077 -0.32747197 0.23139472 -0.5670759 -0.22645363 -0.2418297 -0.3005112 0.632073 0.33734083 0.14321513 -0.12917726 -0.18724935 0.16739848 -0.12718213 0.011650431 -0.027253333 -0.32513788 -0.40899932 -0.28780293
3979 0.21815729 0.040951405 0.27323553 0.022468485 -0.003669751 -0.22983076 -0.30676085 0.9040786 -0.15976612 -0.36104226 -0.015979044 -0.5059525 0.07420282 0.3209222 0.28763428 0.18003634 0.01917227 -0.37880012 -0.17974368 0.2557587 0.13002588 0.09038757 0.49337497 -0.41729537 0.1788962 0.18207824 0.13775375 0.44306827 0.013610996 0.079890124 -0.17985512 -0.13745986 -0.49098814 0.31704894 -0.16667011 0.8805466 0.18884768 0.42305195 -0.11411441 -0.04771104 0.23841609 0.4462835 -0.11456134 0.46080488 -0.41209337 0.15531687 0.01896397 -0.08034313 -0.19026934 0.21495998 0.06798256 -0.54412633 0.06987165 -0.09658871 -0.1321593 -0.26170084 0.5530145 -0.3006713 0.5910123 -0.044240493 0.16709957 -0.24427813 0.1011411 0.40759557
3990 0.4895658 -0.32406467 0.36966667 0.33841723 -0.24064448 0.04437713 -0.22715272 -0.13565111 -0.28055304 0.14918104 0.073673695 -0.29050004 0.4020285 -0.25188625 0.0762361 -0.20262563 0.5033228 -0.20395957 -0.21658745 -0.05833191 0.4708046 0.14485954 0.25064263 0.59458137 -0.01472566 0.08537268 -0.2927692 -0.06744144 0.15695481 0.22664721 -0.1931721 -0.3449723 0.00079839793 -0.26642117 0.47592208 -0.051971793 0.75566375 0.26918462 0.3790393 -0.077187896 -0.28095096 0.49927422 -0.34554186 0.047410596 0.054953534 -0.46130127 0.6401423 0.6174338 -0.019031165 0.27969348 0.039887127 -0.1711619 0.2962447 0.4932266 -0.088856675 0.16379233 0.09007944 -0.11879179 0.39440235 -0.09693898 -0.23118897 -0.32656926 -0.32217944 0.35295552
4010 0.29206052 -0.5867677 0.6021522 0.025588835 0.04250564 -0.07852726 -0.19165948 0.8457199 -0.26619166 0.29593053 0.5381357 0.03655818 0.47353873 0.16406451 0.17429338 -0.22672503 0.18425329 -0.030699082 0.27084127 0.2901973 0.036089666 0.5084179 0.013657614 -0.22450972 0.09834271 -0.016717043 -0.2519342 -0.033839498 -0.03322946 0.052085496 -0.11691114 0.15595242 0.15655932 0.09516448 0.16395201 0.26465493 0.32972378 0.24122405 -0.07596396 -0.23191321 0.4241254 -0.030466067 -0.42885095 0.5090707 -0.17114042 -0.32334113 -0.0744919 -0.30233368 -0.09350252 -0.31215176 -0.2655822 0.2586692 -0.016768986 0.7748359 0.34908304 0.47822967 0.44587815 -0.27603024 0.16645473 0.19016619 0.005716971 0.5403805 0.0013573777 0.34644228
4004 0.14176588 -0.18988834 0.25495297 0.014354633 0.3461142 0.44449654 -0.122626506 0.3666462 -0.51353586 0.10044564 -0.017546607 0.15851882 0.46662307 -0.34914073 -0.3064311 -0.047809727 -0.7164064 0.24584511 -0.359806 0.22850975 -0.101627566 -0.21338437 0.23077895 0.13681526 -0.04664549 0.04359083 -0.59678465 0.0040562153 -0.3813421 -0.25121805 -0.40519622 0.34095418 0.049210194 -0.15610453 0.03431337 -0.2252522 0.60590243 0.20008221 -0.11502556 -0.068588786 0.3265422 0.40448958 -0.20589624 0.2870268 0.35369375 -0.30501896 0.008242825 0.6288576 -0.08740398 0.0517184 0.5760835 0.2712308 -0.0709187 0.48479417 0.26571608 0.048621103 0.31399894 -0.4053511 -0.37163487 0.54038864 -0.14703184 -0.10248373 -0.20278482 0.06865069
2182 0.55967605 -0.4812843 -0.08933828 0.5281418 0.9683094 -0.61970335 0.011914516 0.74564993 -0.10876971 -0.25397196 -0.039141275 0.13815947 -0.23866123 0.10030237 -0.43516254 0.36540973 0.70517045 0.20897484 0.09031718 0.5950482 0.13782029 -0.40850884 0.4609486 0.37623546 -0.057933044 -0.43529207 -0.14217164 -0.022425141 0.38641182 -0.27599776 -0.5634925 0.4869331 -0.73286206 -0.4157458 0.026278863 0.007916056 0.128712 -0.4141777 -0.07266033 0.14907855 0.28275272 0.4635621 -0.11711046 0.1043603 0.2077254 -0.34717187 -0.027647847 0.0024222713 0.12077661 0.6141501 -0.22643505 0.3311962 -0.018808024 0.3844714 0.052425846 -0.36561024 0.33303913 -0.8054187 0.44650766 -0.5557946 -0.23220369 0.23668836 -0.6383695 -0.12672275
3964 -0.20818654 0.18183775 0.12650815 -0.22564755 0.42875642 -0.18785858 0.6669157 0.55464906 -0.02860022 -0.20107786 0.45381796 -0.34385762 0.393494 0.016497392 0.1038394 -0.44012603 0.040897325 -0.1682599 -0.19215636 0.48372218 -0.14227858 -0.17417479 0.34661144 0.026763603 0.37727568 0.2427987 0.14172718 0.38337958 0.13264897 -0.19304731 0.2610792 -0.19452195 0.19207357 -0.65388757 0.16352902 -0.634162 -0.1421282 0.30382058 0.40190044 -0.14742994 0.14232859 0.24153398 -0.20999452 0.48223487 -0.16272232 -0.31276885 0.035135783 0.060636085 0.15367316 0.1917637 0.44419894 0.30120438 -0.33099216 0.24140881 0.28651297 0.10472403 0.42509 -0.4098185 -0.4280958 -0.4528689 -0.52719426 -0.09077823 -0.48102033 -0.16792753
308 0.71935433 0.15372655 -0.30275586 -0.21783589 0.67566043 -0.03486358 -0.79577917 0.6263459 0.22254805 -0.75320256 0.17291231 -0.22447892 0.6097978 0.014806521 0.25392714 0.22855052 -0.47168392 0.12669842 -0.51844376 -0.42390567 0.5251995 0.11786922 -0.19987677 0.29468948 0.14861137 0.7512741 -0.2727733 0.94488907 -0.16701353 -0.23049375 -0.027531773 0.035656296 -0.44816282 -0.5306262 -0.47646624 0.5364748 0.5211987 0.22013952 0.1308927 -0.27200317 -0.6175933 0.2890215 -0.16694225 -0.71907544 -0.0023769762 -0.24637285 -0.116360165 0.29573116 -0.47516277 -0.06378731 0.124892086 0.082257144 0.13510706 0.5663915 -0.5313999 -0.35126352 0.25181678 -0.20144242 -0.26001683 -0.05469292 -0.1295689 -0.2073478 -0.3679059 0.41406363
4005 -0.45161703 -0.35886306 0.179602 0.5055542 0.12669343 0.436213 0.19685392 0.2754136 0.3508685 -0.12726043 0.3127347 -0.5634935 0.10001306 -0.529666 0.23600584 0.14478005 -0.106928274 0.025087336 -0.014171114 0.6787781 0.21092087 0.33139667 -0.3025558 -0.029871466 -0.016365763 -0.09437611 0.10221898 0.37266213 0.11263693 -0.047589127 -0.105125256 0.0619267 -0.12899075 -0.3210322 -0.47490892 0.2290265 0.19351284 0.15689906 0.1267175 -0.57794946 -0.49636066 0.7293538 0.34330252 0.16927642 -0.38779205 -0.51913404 -0.23666309 -0.10846257 0.32926315 -0.30645436 0.13487178 -0.089488246 0.3179165 0.54080313 0.17055662 0.4424126 0.33032417 -0.266059 0.30777782 0.25590843 0.178469 0.03004134 -0.31881994 0.274362
4012 0.14106922 -0.5511505 0.14026716 -0.029887358 -0.6093008 0.26152906 -0.192603 0.5463917 -0.1410336 0.03528376 0.8017139 -0.35003105 0.6336766 0.21590185 0.76831055 -0.05686962 -0.34094203 0.23208798 0.11184255 0.6303276 0.5277082 0.07996304 -0.16838405 0.010386113 -0.06897469 0.5670333 0.058288284 -0.14225219 0.091759175 -0.27611437 -0.005916961 0.25632295 0.071989655 -0.07992402 0.14398824 0.14808863 -0.00077940035 0.36290684 0.1270679 0.2854632 -0.097005285 -0.13390352 0.0054729464 -0.12131182 -0.22591369 -0.1517706 0.032222435 0.38508135 0.19475022 -0.15511012 -0.22268946 0.23177406 0.19848141 0.23028862 -0.13742459 0.10638137 0.09444163 -0.5050961 0.081118666 -0.41533357 0.05280475 -0.5825632 0.16448332 0.07537259
3948 -0.050312128 -0.5524591 0.17322083 0.06254129 -0.35041153 0.05280007 -0.050145127 0.6152871 0.106642246 -0.21422647 0.5022531 0.22664686 0.022686146 -0.46777725 -0.1743767 -0.44155493 0.20965876 0.25932366 0.15754318 0.03933708 0.93050706 0.17842515 0.26302624 0.19648612 0.34198192 -0.031150436 -0.25980163 0.14480183 0.16369924 -0.2844638 0.27079093 0.042385798 -0.36194807 -0.6299737 -0.25836334 0.6222882 -0.058087472 0.3165018 -0.247363 0.03327708 0.29625916 0.42309204 -0.25464746 0.29998145 0.08681417 0.020759203 0.47789946 0.11444202 0.32645762 0.027841482 0.40862116 0.10758443 0.38326344 0.13040265 -0.22278783 0.20903298 0.12927224 -0.35870683 -0.27137825 0.04971204 0.15737827 -0.3037525 -0.6776435 0.18108988
3974 0.37135524 -0.173423 0.5742389 0.43929616 -0.010597846 -0.11337725 0.3655464 0.29260677 -0.28055662 0.20207898 0.27371937 -0.44252878 0.20139872 -0.2857745 -0.13918345 0.32562086 0.09586664 0.08207576 -0.31220114 0.02831554 0.25372764 0.21219659 -0.038430538 -0.09696557 0.2780992 0.47674635 -0.15409565 -0.20169489 -0.2655059 -0.4845442 0.21638057 0.009114882 -0.47447175 0.21266285 -0.2902205 -0.032218426 0.28686067 0.3835631 0.3285077 -0.33239022 0.27452353 0.23012589 0.28925508 0.58665365 0.070811845 0.030957608 0.046984486 0.1037889 -0.43224743 -0.72184956 0.05494092 -0.05313711 0.6459122 -0.0249298 0.43080845 0.47108757 0.45415705 0.06260834 0.20342058 0.01911917 -0.5190782 -0.10478973 -0.35566652 0.06968866
3968 0.07930449 -0.28661475 0.15171628 0.18950246 0.31334075 -0.10921605 0.111880384 0.46260378 -0.15575068 0.25284433 0.2112794 0.23756312 -0.4641347 -0.0013885334 -0.23550734 0.08656885 0.3487723 0.33031684 -0.13012831 0.44384912 0.19146134 0.08050978 0.53804284 0.04777739 0.4392291 -0.05909782 0.14417718 0.0757764 0.45794487 0.15715213 -0.21168703 0.30051634 -0.49996865 -0.605887 0.025717195 0.45806754 -0.0978478 0.09557169 0.10727745 0.12457518 0.19349311 0.435491 -0.34463233 -0.18579611 -0.09823757 -0.8124555 0.12039647 0.12263328 0.29941532 0.568768 -0.11031121 -0.17619723 -0.18465835 0.07161529 -0.10751018 -0.3724321 0.26722017 0.12583585 0.35332695 -0.60677624 -0.025640821 0.31492284 -0.12600708 -0.3485124
2070 0.6223732 -0.2736499 -0.42586398 0.3468301 -0.1707979 -0.41862714 0.22232708 -0.09461425 -0.20272352 -0.36732155 -0.4064866 -0.053466175 0.5011969 0.3155541 0.5637882 0.24126829 -0.304106 0.31131995 -0.35126877 0.36833304 0.20122024 -0.06734628 0.46757182 -0.27808094 0.26682538 -0.02928235 -0.21091513 -0.60461104 -0.22161102 -0.7449967 0.049275678 0.43727842 -0.24038993 -1.0012345 -0.22241333 -0.19415082 0.5898904 0.22855234 0.1283143 -0.120363936 0.1774634 -0.11380704 0.056844886 0.302698 -0.3522251 -0.12354345 -0.75770193 -0.28175968 0.29196098 0.9006081 0.2820802 -0.17234689 0.0067907907 0.56714076 0.14408056 -0.0059674378 0.22186257 -0.19137211 0.37877858 -0.16173185 -0.15183395 0.26661494 -0.552699 1.0841477
3984 -0.0037552468 -0.2866974 0.10326882 -0.22868872 -0.1912067 -0.6104236 -0.35668176 0.40663767 -0.29830822 0.3353944 0.5793767 -0.45107263 -0.115738705 0.0031695357 -0.056680042 0.17902558 -0.37326527 0.12662336 -0.2857288 0.66785866 0.38100237 -0.31617358 0.41629475 -0.03620973 0.31134883 -0.32069558 -0.22699058 -0.00060120976 -0.16345339 0.23047374 -0.11619334 0.34462363 -0.4612855 -0.096474625 -0.16811317 -0.05655865 0.491732 0.2799489 0.24787425 0.16286033 0.021723676 0.07985274 -0.04820809 -0.2719742 -0.4863272 -0.48327938 0.6861415 -0.0027893789 -0.21665637 -0.13624574 0.035900928 0.2561518 0.05782607 -0.42858735 -0.18948697 0.06817926 0.45063382 -0.46792555 0.2859084 -0.08640495 -0.40702742 -0.059465367 -0.15206586 0.2740384
4002 -0.19715394 -0.45903435 0.33103672 -0.12028896 0.4438945 0.04902208 0.14347544 0.51386446 -0.4311566 0.23684318 0.4711308 0.018906062 -0.06804205 0.20423757 0.33785558 -0.06696861 -0.3522513 0.5095647 -0.46332774 -0.12736289 0.29749897 0.06770131 0.1112204 -0.08760709 0.3674331 0.07066137 -0.1598471 -0.04803251 0.5345628 0.10198632 0.4394304 0.11373612 -0.34049445 -0.1772761 0.06554697 0.12016417 0.562272 0.24235375 0.023418445 0.6088832 0.33246517 0.52405685 0.5440025 -0.111912474 0.55077094 0.00027124997 -0.12654193 0.33165938 0.05966428 -0.03633044 0.25113276 -0.30008432 0.59103394 0.4617777 0.49795082 -0.16696921 0.45877507 -0.2174378 -0.4464659 -0.22033797 0.09017329 -0.3056866 0.017443933 0.11170064
2364 0.23003393 -0.26959342 0.40571824 0.33761305 0.11505623 -0.49558082 -0.3258392 0.6443185 0.23695703 -0.081664205 0.20623219 -0.27978832 0.17997776 -0.006725856 0.3185427 -0.6919695 -0.39350727 0.6946625 -0.27567843 0.5874269 0.32859352 0.3863549 0.57608545 0.3903136 -0.39228895 -0.048005227 -0.3265826 0.24842203 0.1842739 -0.60078454 0.24477223 -0.10420068 -1.0259744 -0.13538061 0.49481687 -0.70387286 0.3414986 -0.14920369 0.19091436 -0.25461635 0.2865918 0.2159069 -0.398324 0.21285938 -0.033497892 -0.39952448 -0.634722 -0.3501387 -0.6228964 0.104648426 -0.43659854 -0.58464515 0.15125224 -0.08698665 -0.29528537 0.16785604 -0.46153337 -0.14536016 0.3780635 0.07278124 0.10770953 -0.5957508 -0.7315236 -0.30277184
174 0.26275656 -0.29468533 0.8609037 -0.024649762 0.23814058 0.3463485 0.95548624 0.37568706 -0.11866585 -0.05312753 0.44136518 -0.108843796 0.35573226 0.0042345054 0.358794 0.26648057 0.056029435 -0.31736678 0.24944 -0.0696399 -0.07164159 0.18433152 0.26924244 0.31053093 -0.37904853 0.3703223 0.91322356 0.25702998 0.3693665 -0.119288966 -0.49959072 0.7666853 -0.33470595 -0.8781983 -0.04405472 0.20201786 0.86259496 0.6581805 -0.5692455 -0.6312608 0.19624783 -0.10336217 -0.05642085 -0.0064173113 0.5548201 0.062375836 0.021520648 0.62924105 0.23307963 -0.13827854 -0.36692375 0.46587685 0.113400646 0.41024047 -0.106685415 -0.22786659 0.39476284 -0.52325904 -0.1647335 -0.55823463 -0.15074238 -0.18064755 -0.55551803 -0.32045734
3106 0.93614656 -0.14820957 -0.45915666 0.33696628 0.23763192 -0.5178504 0.18733048 0.17336965 -0.16367571 -0.247779 0.41974702 -0.9593034 0.49083826 -0.6176158 -0.029199405 0.53824216 -0.0454773 0.24156733 -0.3330573 0.4997305 0.14650643 0.47011977 0.7391974 -0.1657914 -0.23702404 -0.1604019 0.05117748 -0.40599868 0.094229095 0.24020536 -0.222167 0.4251065 -0.1861249 0.107110314 -0.6091942 -0.10484397 -0.30947816 -0.22836025 0.052550443 0.25244725 -0.120307505 0.7087784 -0.8867505 -0.3457721 0.00014675467 -0.11839047 -0.22512709 -0.19316255 -0.2883342 0.5230182 0.3452832 0.072552584 -0.06580662 0.61637104 -0.11353905 0.56997275 0.04497808 0.29865798 -0.42652947 -0.21877861 -0.16063695 -0.6289805 -0.46673858 0.17162174
868 0.5156124 -0.022615967 0.27405405 0.19728196 -0.0005993813 -0.19169861 0.32795054 0.8714823 0.5230876 0.68912065 0.38055554 0.051106144 -0.12366807 -0.53907245 0.29098767 -0.6717635 -0.5408286 -0.099613376 -0.15726574 0.27341834 0.0992082 0.520574 -0.08750577 0.14881937 -0.47841352 -0.13745527 -0.6250162 0.53532207 -0.14185913 -0.19180109 -0.13542557 0.28284624 -0.85308844 -0.0062204627 0.059203602 0.04305303 0.87758785 0.16390312 0.23645888 -0.30099326 0.525849 0.33494103 0.101975806 0.36259523 -0.084174275 -0.8532601 -0.5613207 0.19708385 -0.4924953 0.032130543 0.100350104 -0.23947436 -0.0032623308 0.3097865 -0.24467574 -0.55548483 -0.30045065 -0.31699714 -0.20260356 0.20923305 -0.44012445 -0.7404023 -0.6834576 0.03616123
277 0.049139373 -0.47981423 0.5068061 -0.11832301 -0.2391952 -0.5471948 0.5457411 -0.1726086 0.047652595 -0.11648137 0.40014353 0.093250476 -0.05692527 0.3068308 -0.05750545 -0.22653872 0.09637131 -0.69923115 -0.530639 -0.13741638 0.199758 0.24483897 -0.23556958 0.13552503 0.02708184 0.3235544 -0.2962252 0.424623 0.007803595 -0.0848954 0.40879732 0.16829658 0.009771872 -0.54924273 0.071546115 0.23499009 0.6360901 -0.062829465 0.29850444 -0.509406 0.0077562323 0.4605892 -0.2203354 -0.13325037 -0.4676579 -0.52532315 0.21706836 -0.06429904 0.18969281 0.6018153 0.3425316 0.2534512 0.63026565 0.45544282 0.23369832 -0.005390019 0.73497456 -0.817068 -0.7493072 -0.19303492 -0.067468196 -0.5181637 -0.110963725 -0.09296607
2684 0.5528702 0.2807401 0.7462182 0.18907714 0.25666577 -0.10081626 0.72412133 0.5488001 -0.5740189 -0.66081065 -0.4163903 -0.17773207 0.9441876 0.48228958 -0.35216698 0.46796405 0.009238398 -0.09060402 -0.1761637 0.50898606 0.14905246 0.382362 0.14749666 -0.1508042 -0.049798 -0.13453391 -0.58107257 0.2784912 0.7529116 -0.4614185 -0.34238687 0.2524916 -0.36817285 -0.8138839 -0.04858606 -0.45964432 0.16893049 -0.33539703 -0.30140048 0.020897463 -0.021285566 0.025949556 -0.08669886 -0.20050801 0.31808907 0.5726159 -0.30108628 -0.56105655 0.17943354 0.26314056 -0.113015614 -0.2908369 -0.0742757 0.5714518 -0.47316268 0.5763756 0.068165086 -0.20654479 -0.19879645 -0.05453365 0.13286631 -0.32141268 -0.346295 -0.07857063
2503 0.34256077 -0.1603706 0.2945448 0.4855343 0.027247353 -0.34385368 0.6414738 -0.43569407 -0.32614827 -0.8698684 -0.21242893 -0.060819697 0.63977474 0.3857523 -0.20797962 0.32566583 -0.28073058 0.26729426 -0.19829541 1.0833915 0.21187675 -0.24594891 0.5036979 -0.4354387 0.08659952 0.0603063 0.00908285 0.061321154 -0.12622534 -0.41564277 -0.12825426 -0.059103947 -0.3308627 -0.41929445 -0.29372928 -0.36630678 0.26955876 0.050891593 -0.094171725 0.30462247 0.03375708 -0.1120173 -0.5326807 -0.01276861 -0.058794696 -0.05086003 -0.683105 -0.12782438 0.35783717 0.6415578 0.049483225 -0.28380466 -0.23947652 0.6562207 -0.001107349 0.2702348 0.20006594 -0.34511206 0.77129763 -0.09327515 0.3508585 0.19651818 -0.2537146 0.48041862
2208 0.35543948 -0.44971925 0.85215205 0.4397909 -0.21281101 -0.25863644 0.2112478 0.22281429 0.19942105 -0.76057756 -0.19652848 0.25713167 0.40536258 -0.070135616 -0.07672559 0.11862716 -0.13488889 -0.2956265 -0.15884545 0.8441602 -0.2733788 0.35654473 -0.07159437 -0.16122334 0.058951676 -0.53843606 -0.5663517 0.30367473 0.3986638 -0.49887902 0.08185357 0.15472624 -0.45177126 -0.14291075 -0.3045537 -0.82114446 -0.08121797 0.08242463 0.46423793 0.85621965 -0.3657249 0.25642595 -0.06745404 -0.19109589 0.039983388 0.5704495 -0.26277402 0.23836939 0.09245136 0.46463403 -0.5163361 -0.32032683 0.50277394 0.3908373 0.20241125 -0.0356595 0.7850563 -0.20232388 0.026552994 -0.024917196 0.115645066 -0.3277725 -0.36508682 -0.6038685
2753 0.73158026 -0.20318103 0.17631814 0.48196858 0.3733766 -0.15135738 0.30750385 0.08074813 -0.22481722 -0.3426854 0.13966355 -0.66409266 0.38530436 -0.4081023 -0.57672405 0.15900981 -0.27709824 -0.12273611 -0.26258913 0.8934963 0.32948872 0.54997087 0.87410194 -0.58317524 -0.09449568 0.06595995 -0.25622237 0.057183195 0.27366373 -0.4621778 -0.019223966 0.23104891 -0.029227244 -0.007180774 -0.6063078 -0.47900903 -0.18948372 -0.7003681 -0.3588103 0.55236095 -0.10273722 0.59483653 -0.2790311 -0.20798673 0.39654803 0.28139618 -0.4196721 0.086642995 -0.28581125 0.5914936 0.06950363 -0.23131375 -0.15846108 0.1268866 0.1413017 0.545537 -0.12704536 0.031329405 0.17214526 -0.36255473 -0.30887687 -0.4540281 -0.34706324 0.100938626
